{"learner":{"attributes":{"scikit_learn":"{\"_estimator_type\": \"regressor\"}"},"feature_names":["user_id","product_id"],"feature_types":["int","int"],"gradient_booster":{"model":{"gbtree_model_param":{"num_parallel_tree":"1","num_trees":"60"},"iteration_indptr":[0,1,2,3,4,5,6,7,8,9,10,11,12,13,14,15,16,17,18,19,20,21,22,23,24,25,26,27,28,29,30,31,32,33,34,35,36,37,38,39,40,41,42,43,44,45,46,47,48,49,50,51,52,53,54,55,56,57,58,59,60],"tree_info":[0,0,0,0,0,0,0,0,0,0,0,0,0,0,0,0,0,0,0,0,0,0,0,0,0,0,0,0,0,0,0,0,0,0,0,0,0,0,0,0,0,0,0,0,0,0,0,0,0,0,0,0,0,0,0,0,0,0,0,0],"trees":[{"base_weights":[3.125E-2,3.787879E-3,3.0769232E-1,5.909091E-2,-2.6086956E-1,5.5E-1,-3.75E-2,-5.4347827E-3,3.6842105E-1,-1.25E-1,-3.75E-2,1.25E-2,7.1428575E-2,2.906977E-3,-4.2857144E-2,3.0555556E-2,7.5E-2,-1.875E-2,-0E0],"categories":[],"categories_nodes":[],"categories_segments":[],"categories_sizes":[],"default_left":[0,0,0,0,0,0,0,0,0,0,0,0,0,0,0,0,0,0,0],"id":0,"left_children":[1,3,5,7,9,11,-1,13,15,17,-1,-1,-1,-1,-1,-1,-1,-1,-1],"loss_changes":[1.0920383E0,1.9474143E0,2.356731E0,2.197574E0,3.0978262E-1,6.0892844E-1,0E0,1.3556713E0,2.2660828E-1,9.375E-2,0E0,0E0,0E0,0E0,0E0,0E0,0E0,0E0,0E0],"parents":[2147483647,0,0,1,1,2,2,3,3,4,4,5,5,7,7,8,8,9,9],"right_children":[2,4,6,8,10,12,-1,14,16,18,-1,-1,-1,-1,-1,-1,-1,-1,-1],"split_conditions":[4.5E1,3.9E1,4.9E1,3.3E1,4.1E1,4.7E1,-3.75E-2,3E1,3.8E1,4E1,-3.75E-2,1.25E-2,7.1428575E-2,2.906977E-3,-4.2857144E-2,3.0555556E-2,7.5E-2,-1.875E-2,-0E0],"split_indices":[0,0,0,0,0,0,0,0,0,0,0,0,0,0,0,0,0,0,0],"split_type":[0,0,0,0,0,0,0,0,0,0,0,0,0,0,0,0,0,0,0],"sum_hessian":[1.43E2,1.31E2,1.2E1,1.09E2,2.2E1,9E0,3E0,9.1E1,1.8E1,1.1E1,1.1E1,3E0,6E0,8.5E1,6E0,1.7E1,1E0,7E0,4E0],"tree_param":{"num_deleted":"0","num_feature":"2","num_nodes":"19","size_leaf_vector":"1"}},{"base_weights":[8.46863E-3,-1.8272122E-2,3.383117E-1,5.1452298E-2,-2.4648437E-1,6.530612E-2,-1.7E-1,-1.7122198E-2,3.4375E-1,-1.4230768E-1,-3.01875E-1,-3.0833334E-2,2.5000006E-3,2.9181566E-3,-4.16519E-2,4.3333337E-2,1.5520833E-2,-2.0555554E-2,-0E0,-3.6500003E-2,-9.374999E-3],"categories":[],"categories_nodes":[],"categories_segments":[],"categories_sizes":[],"default_left":[0,0,0,0,0,0,0,0,0,0,0,0,0,0,0,0,0,0,0,0,0],"id":1,"left_children":[1,3,5,7,9,-1,11,13,15,17,19,-1,-1,-1,-1,-1,-1,-1,-1,-1,-1],"loss_changes":[1.2939384E0,2.1767097E0,1.8709198E0,2.1105235E0,1.4169407E-1,0E0,1.4258337E-1,1.6026021E0,2.705469E-1,1.1700854E-1,2.2853911E-1,0E0,0E0,0E0,0E0,0E0,0E0,0E0,0E0,0E0,0E0],"parents":[2147483647,0,0,1,1,2,2,3,3,4,4,6,6,7,7,8,8,9,9,10,10],"right_children":[2,4,6,8,10,-1,12,14,16,18,20,-1,-1,-1,-1,-1,-1,-1,-1,-1,-1],"split_conditions":[4.7E1,3.9E1,4.9E1,3.3E1,4.1E1,6.530612E-2,5E1,2.9E1,3.6E1,4E1,4.5E1,-3.0833334E-2,2.5000006E-3,2.9181566E-3,-4.16519E-2,4.3333337E-2,1.5520833E-2,-2.0555554E-2,-0E0,-3.6500003E-2,-9.374999E-3],"split_indices":[0,0,0,0,0,0,0,0,0,0,0,0,0,0,0,0,0,0,0,0,0],"split_type":[0,0,0,0,0,0,0,0,0,0,0,0,0,0,0,0,0,0,0,0,0],"sum_hessian":[1.45E2,1.35E2,1E1,1.04E2,3.1E1,6E0,4E0,8.5E1,1.9E1,1.2E1,1.9E1,2E0,2E0,7.7E1,8E0,1.2E1,7E0,8E0,4E0,1.4E1,5E0],"tree_param":{"num_deleted":"0","num_feature":"2","num_nodes":"21","size_leaf_vector":"1"}},{"base_weights":[1.575385E-2,1.4570579E-2,-2.653465E-2,-4.1086342E-2,2.7927156E-3,-3.004855E-2,-5.5488474E-3,-3.8439126E-3,-2.14838E-3],"categories":[],"categories_nodes":[],"categories_segments":[],"categories_sizes":[],"default_left":[0,0,0,0,0,0,0,0,0],"id":2,"left_children":[1,-1,3,5,-1,7,-1,-1,-1],"loss_changes":[8.062052E-1,0E0,8.911618E-2,1.2321815E-2,0E0,2.9110685E-3,0E0,0E0,0E0],"parents":[2147483647,0,0,2,2,3,3,5,5],"right_children":[2,-1,4,6,-1,8,-1,-1,-1],"split_conditions":[2E0,1.4570579E-2,5E0,4E0,2.7927156E-3,3E0,-5.5488474E-3,-3.8439126E-3,-2.14838E-3],"split_indices":[1,0,1,1,0,1,0,0,0],"split_type":[0,0,0,0,0,0,0,0,0],"sum_hessian":[1.45E2,3.5E1,1.1E2,8.7E1,2.3E1,5.1E1,3.6E1,2.4E1,2.7E1],"tree_param":{"num_deleted":"0","num_feature":"2","num_nodes":"9","size_leaf_vector":"1"}},{"base_weights":[-6.1269808E-3,1.2932258E-2,-5.0001368E-2,-1.3115779E-2,-8.471551E-3,-3.0711477E-3,-4.5466153E-5],"categories":[],"categories_nodes":[],"categories_segments":[],"categories_sizes":[],"default_left":[0,0,0,0,0,0,0],"id":3,"left_children":[1,-1,3,5,-1,-1,-1],"loss_changes":[8.7411016E-1,0E0,1.4101902E-1,1.2239003E-2,0E0,0E0,0E0],"parents":[2147483647,0,0,2,2,3,3],"right_children":[2,-1,4,6,-1,-1,-1],"split_conditions":[2E0,1.2932258E-2,4E0,3E0,-8.471551E-3,-3.0711477E-3,-4.5466153E-5],"split_indices":[1,0,1,1,0,0,0],"split_type":[0,0,0,0,0,0,0],"sum_hessian":[1.45E2,3.5E1,1.1E2,5.4E1,5.6E1,2.2E1,3.2E1],"tree_param":{"num_deleted":"0","num_feature":"2","num_nodes":"7","size_leaf_vector":"1"}},{"base_weights":[-6.232052E-3,7.818034E-3,-3.2555282E-2,-1.199159E-2,-6.0733096E-3,3.4359347E-3,-2.584405E-2,-5.1699295E-3,6.7139853E-4],"categories":[],"categories_nodes":[],"categories_segments":[],"categories_sizes":[],"default_left":[0,0,0,0,0,0,0,0,0],"id":4,"left_children":[1,-1,3,-1,5,-1,7,-1,-1],"loss_changes":[3.2695812E-1,0E0,2.5838166E-1,0E0,7.0434354E-2,0E0,5.001307E-2,0E0,0E0],"parents":[2147483647,0,0,2,2,4,4,6,6],"right_children":[2,-1,4,-1,6,-1,8,-1,-1],"split_conditions":[2E0,7.818034E-3,3E0,-1.199159E-2,4E0,3.4359347E-3,5E0,-5.1699295E-3,6.7139853E-4],"split_indices":[1,0,1,0,1,0,1,0,0],"split_type":[0,0,0,0,0,0,0,0,0],"sum_hessian":[1.45E2,3.4E1,1.11E2,2.5E1,8.6E1,2.8E1,5.8E1,3.2E1,2.6E1],"tree_param":{"num_deleted":"0","num_feature":"2","num_nodes":"9","size_leaf_vector":"1"}},{"base_weights":[2.177185E-2,-1.0900394E-3,3.066054E-1,5.534504E-2,-2.0610116E-1,5.9005428E-2,-1.5154411E-1,2.6831017E-3,3.046551E-1,-2.3762763E-1,-9.433031E-5,-2.8188959E-2,2.9316067E-3,3.7891716E-3,-3.6734276E-2,2.4523826E-2,6.870792E-2,-1.30983535E-2,-3.1968087E-2],"categories":[],"categories_nodes":[],"categories_segments":[],"categories_sizes":[],"default_left":[0,0,0,0,0,0,0,0,0,0,0,0,0,0,0,0,0,0,0],"id":5,"left_children":[1,3,5,7,9,-1,11,13,15,17,-1,-1,-1,-1,-1,-1,-1,-1,-1],"loss_changes":[9.640855E-1,1.6080416E0,1.5179008E0,1.43026E0,1.9381285E-1,0E0,1.2613541E-1,1.1994761E0,2.6322818E-1,1.8563998E-1,0E0,0E0,0E0,0E0,0E0,0E0,0E0,0E0,0E0],"parents":[2147483647,0,0,1,1,2,2,3,3,4,4,6,6,7,7,8,8,9,9],"right_children":[2,4,6,8,10,-1,12,14,16,18,-1,-1,-1,-1,-1,-1,-1,-1,-1],"split_conditions":[4.7E1,3.9E1,4.9E1,3.3E1,4.5E1,5.9005428E-2,5E1,3E1,3.8E1,4.1E1,-9.433031E-5,-2.8188959E-2,2.9316067E-3,3.7891716E-3,-3.6734276E-2,2.4523826E-2,6.870792E-2,-1.30983535E-2,-3.1968087E-2],"split_indices":[0,0,0,0,0,0,0,0,0,0,0,0,0,0,0,0,0,0,0],"split_type":[0,0,0,0,0,0,0,0,0,0,0,0,0,0,0,0,0,0,0],"sum_hessian":[1.47E2,1.37E2,1E1,1.08E2,2.9E1,6E0,4E0,9E1,1.8E1,2.5E1,4E0,2E0,2E0,8.3E1,7E0,1.7E1,1E0,1.2E1,1.3E1],"tree_param":{"num_deleted":"0","num_feature":"2","num_nodes":"19","size_leaf_vector":"1"}},{"base_weights":[-3.1198363E-4,9.051573E-3,-2.6703695E-2,-4.469838E-2,4.130468E-3,-8.348868E-3,-2.8399326E-2,6.881421E-4,-5.8971117E-3],"categories":[],"categories_nodes":[],"categories_segments":[],"categories_sizes":[],"default_left":[0,0,0,0,0,0,0,0,0],"id":6,"left_children":[1,-1,3,5,-1,-1,7,-1,-1],"loss_changes":[3.6198193E-1,0E0,1.4502957E-1,5.642779E-2,0E0,0E0,7.267171E-2,0E0,0E0],"parents":[2147483647,0,0,2,2,3,3,6,6],"right_children":[2,-1,4,6,-1,-1,8,-1,-1],"split_conditions":[2E0,9.051573E-3,5E0,3E0,4.130468E-3,-8.348868E-3,4E0,6.881421E-4,-5.8971117E-3],"split_indices":[1,0,1,1,0,0,1,0,0],"split_type":[0,0,0,0,0,0,0,0,0],"sum_hessian":[1.49E2,3.3E1,1.16E2,9.2E1,2.4E1,2.6E1,6.6E1,3.1E1,3.5E1],"tree_param":{"num_deleted":"0","num_feature":"2","num_nodes":"9","size_leaf_vector":"1"}},{"base_weights":[-3.997503E-2,-7.169961E-2,3.7644204E-1,3.939319E-2,-1.2516883E-1,7.431261E-2,-1.3886721E-1,-1.5217045E-1,9.457681E-2,-3.1412694E-1,-1.04961E-1,-2.6054338E-2,2.9098014E-3,1.7975243E-2,-4.034111E-2,3.697819E-2,5.601562E-3,-1.1960757E-2,-4.0691704E-2,-6.3394406E-3,-2.3726283E-2],"categories":[],"categories_nodes":[],"categories_segments":[],"categories_sizes":[],"default_left":[0,0,0,0,0,0,0,0,0,0,0,0,0,0,0,0,0,0,0,0,0],"id":7,"left_children":[1,3,5,7,9,-1,11,13,15,17,19,-1,-1,-1,-1,-1,-1,-1,-1,-1,-1],"loss_changes":[1.8632722E0,7.771366E-1,1.9927527E0,4.6895236E-1,3.0305088E-1,0E0,1.0976809E-1,9.064393E-1,3.4010252E-1,9.572542E-2,4.3040514E-1,0E0,0E0,0E0,0E0,0E0,0E0,0E0,0E0,0E0,0E0],"parents":[2147483647,0,0,1,1,2,2,3,3,4,4,6,6,7,7,8,8,9,9,10,10],"right_children":[2,4,6,8,10,-1,12,14,16,18,20,-1,-1,-1,-1,-1,-1,-1,-1,-1,-1],"split_conditions":[4.7E1,1.6E1,4.9E1,4E0,2E1,7.431261E-2,5E1,2E0,5E0,1.8E1,4.1E1,-2.6054338E-2,2.9098014E-3,1.7975243E-2,-4.034111E-2,3.697819E-2,5.601562E-3,-1.1960757E-2,-4.0691704E-2,-6.3394406E-3,-2.3726283E-2],"split_indices":[0,0,0,0,0,0,0,0,0,0,0,0,0,0,0,0,0,0,0,0,0],"split_type":[0,0,0,0,0,0,0,0,0,0,0,0,0,0,0,0,0,0,0,0,0],"sum_hessian":[1.38E2,1.29E2,9E0,4.2E1,8.7E1,5E0,4E0,9E0,3.3E1,7E0,8E1,2E0,2E0,4E0,5E0,3E0,3E1,3E0,4E0,6.2E1,1.8E1],"tree_param":{"num_deleted":"0","num_feature":"2","num_nodes":"21","size_leaf_vector":"1"}},{"base_weights":[-3.8164992E-2,1.7808877E-2,-2.177902E-1,-3.55822E-2,2.8382695E-1,-2.734209E-1,9.666167E-2,-8.365579E-3,-3.3051725E-2,3.764974E-1,1.0934289E-1,-1.690547E-2,-3.2494584E-1,6.1400857E-2,-1.296094E-1,-4.279918E-3,2.1328049E-2,1.8196668E-2,4.894527E-2,-6.1142156E-3,6.513691E-2,-3.6364917E-2,-8.889601E-3,-2.4317382E-2,2.7158132E-3],"categories":[],"categories_nodes":[],"categories_segments":[],"categories_sizes":[],"default_left":[0,0,0,0,0,0,0,0,0,0,0,0,0,0,0,0,0,0,0,0,0,0,0,0,0],"id":8,"left_children":[1,3,5,7,9,11,13,15,-1,17,19,-1,21,-1,23,-1,-1,-1,-1,-1,-1,-1,-1,-1,-1],"loss_changes":[1.4818633E0,1.6150372E0,6.386906E-1,7.5981283E-1,2.6605356E-1,1.0639E-1,7.8194517E-1,6.807506E-1,0E0,1.7461514E-1,7.79085E-1,0E0,1.4125562E-1,0E0,9.56202E-2,0E0,0E0,0E0,0E0,0E0,0E0,0E0,0E0,0E0,0E0],"parents":[2147483647,0,0,1,1,2,2,3,3,4,4,5,5,6,6,7,7,9,9,10,10,12,12,14,14],"right_children":[2,4,6,8,10,12,14,16,-1,18,20,-1,22,-1,24,-1,-1,-1,-1,-1,-1,-1,-1,-1,-1],"split_conditions":[3.9E1,3.3E1,4.8E1,3E1,3.6E1,4.1E1,4.9E1,2.7E1,-3.3051725E-2,3.4E1,3.8E1,-1.690547E-2,4.7E1,6.1400857E-2,5E1,-4.279918E-3,2.1328049E-2,1.8196668E-2,4.894527E-2,-6.1142156E-3,6.513691E-2,-3.6364917E-2,-8.889601E-3,-2.4317382E-2,2.7158132E-3],"split_indices":[0,0,0,0,0,0,0,0,0,0,0,0,0,0,0,0,0,0,0,0,0,0,0,0,0],"split_type":[0,0,0,0,0,0,0,0,0,0,0,0,0,0,0,0,0,0,0,0,0,0,0,0,0],"sum_hessian":[1.46E2,1.12E2,3.4E1,9.4E1,1.8E1,2.9E1,5E0,8.7E1,7E0,1.1E1,7E0,1.1E1,1.8E1,1E0,4E0,7.6E1,1.1E1,5E0,6E0,6E0,1E0,1.5E1,3E0,2E0,2E0],"tree_param":{"num_deleted":"0","num_feature":"2","num_nodes":"25","size_leaf_vector":"1"}},{"base_weights":[-4.326797E-3,-2.5217498E-2,2.448558E-1,8.518615E-3,-1.554795E-1,4.711797E-2,-1.2096879E-1,-5.232725E-2,3.0551404E-1,-2.455743E-2,-1.1166762E-1,-2.2696223E-2,2.534758E-3,7.759089E-3,-1.17500415E-2,2.5068536E-2,6.1880063E-2,1.4819746E-2,-1.6624367E-2],"categories":[],"categories_nodes":[],"categories_segments":[],"categories_sizes":[],"default_left":[0,0,0,0,0,0,0,0,0,0,0,0,0,0,0,0,0,0,0],"id":9,"left_children":[1,3,5,7,9,-1,11,13,15,-1,17,-1,-1,-1,-1,-1,-1,-1,-1],"loss_changes":[7.401641E-1,5.7700837E-1,9.677414E-1,1.9134358E0,7.9152286E-2,0E0,8.3295815E-2,7.542285E-1,1.5406322E-1,0E0,3.08285E-1,0E0,0E0,0E0,0E0,0E0,0E0,0E0,0E0],"parents":[2147483647,0,0,1,1,2,2,3,3,4,4,6,6,7,7,8,8,10,10],"right_children":[2,4,6,8,10,-1,12,14,16,-1,18,-1,-1,-1,-1,-1,-1,-1,-1],"split_conditions":[4.7E1,3.9E1,4.9E1,3.3E1,4E1,4.711797E-2,5E1,1E1,3.8E1,-2.455743E-2,4.1E1,-2.2696223E-2,2.534758E-3,7.759089E-3,-1.17500415E-2,2.5068536E-2,6.1880063E-2,1.4819746E-2,-1.6624367E-2],"split_indices":[0,0,0,0,0,0,0,0,0,0,0,0,0,0,0,0,0,0,0],"split_type":[0,0,0,0,0,0,0,0,0,0,0,0,0,0,0,0,0,0,0],"sum_hessian":[1.4E2,1.3E2,1E1,1.04E2,2.6E1,6E0,4E0,8.7E1,1.7E1,7E0,1.9E1,2E0,2E0,2.9E1,5.8E1,1.6E1,1E0,3E0,1.6E1],"tree_param":{"num_deleted":"0","num_feature":"2","num_nodes":"19","size_leaf_vector":"1"}},{"base_weights":[1.4962442E-3,-2.5713047E-2,2.1806229E-2,4.6295607E-3,2.2282083E-1,4.5404423E-2,-1.4552903E-1,4.3079287E-2,-1.129042E-1,-9.192346E-4,2.8726343E-2,-1.8243333E-2,6.0717403E-3,-2.118314E-2,2.365775E-3],"categories":[],"categories_nodes":[],"categories_segments":[],"categories_sizes":[],"default_left":[0,0,0,0,0,0,0,0,0,0,0,0,0,0,0],"id":10,"left_children":[1,-1,3,5,7,9,11,-1,13,-1,-1,-1,-1,-1,-1],"loss_changes":[7.935128E-1,0E0,4.8235497E-1,8.025581E-1,8.166739E-1,1.3627268E0,2.2419554E-1,0E0,7.2559915E-2,0E0,0E0,0E0,0E0,0E0,0E0],"parents":[2147483647,0,0,2,2,3,3,4,4,5,5,6,6,8,8],"right_children":[2,-1,4,6,8,10,12,-1,14,-1,-1,-1,-1,-1,-1],"split_conditions":[4E0,-2.5713047E-2,4.7E1,3.9E1,4.9E1,3.3E1,4.5E1,4.3079287E-2,5E1,-9.192346E-4,2.8726343E-2,-1.8243333E-2,6.0717403E-3,-2.118314E-2,2.365775E-3],"split_indices":[0,0,0,0,0,0,0,0,0,0,0,0,0,0,0],"split_type":[0,0,0,0,0,0,0,0,0,0,0,0,0,0,0],"sum_hessian":[1.49E2,1E1,1.39E2,1.29E2,1E1,1.02E2,2.7E1,6E0,4E0,8.4E1,1.8E1,2.3E1,4E0,2E0,2E0],"tree_param":{"num_deleted":"0","num_feature":"2","num_nodes":"15","size_leaf_vector":"1"}},{"base_weights":[3.094E-2,7.686009E-3,1.8005665E-2,7.842796E-3,5.46848E-3,1.963359E-2,-1.0214696E-3,-1.528907E-5,3.4478225E-3],"categories":[],"categories_nodes":[],"categories_segments":[],"categories_sizes":[],"default_left":[0,0,0,0,0,0,0,0,0],"id":11,"left_children":[1,-1,3,5,-1,7,-1,-1,-1],"loss_changes":[8.5926116E-2,0E0,4.281188E-2,1.978847E-2,0E0,1.6453765E-2,0E0,0E0,0E0],"parents":[2147483647,0,0,2,2,3,3,5,5],"right_children":[2,-1,4,6,-1,8,-1,-1,-1],"split_conditions":[2E0,7.686009E-3,5E0,4E0,5.46848E-3,3E0,-1.0214696E-3,-1.528907E-5,3.4478225E-3],"split_indices":[1,0,1,1,0,1,0,0,0],"split_type":[0,0,0,0,0,0,0,0,0],"sum_hessian":[1.46E2,3.1E1,1.15E2,9.1E1,2.4E1,5.5E1,3.6E1,2.4E1,3.1E1],"tree_param":{"num_deleted":"0","num_feature":"2","num_nodes":"9","size_leaf_vector":"1"}},{"base_weights":[1.0193104E-2,4.6486232E-2,-4.324025E-2,7.1460376E-3,2.8840244E-2,-8.410476E-3,1.2847254E-3,-2.4833714E-3,7.1195364E-3],"categories":[],"categories_nodes":[],"categories_segments":[],"categories_sizes":[],"default_left":[0,0,0,0,0,0,0,0,0],"id":12,"left_children":[1,3,5,-1,7,-1,-1,-1,-1],"loss_changes":[2.9677814E-1,3.8042173E-2,1.431838E-1,0E0,1.2680322E-1,0E0,0E0,0E0,0E0],"parents":[2147483647,0,0,1,1,2,2,4,4],"right_children":[2,4,6,-1,8,-1,-1,-1,-1],"split_conditions":[4E0,2E0,5E0,7.1460376E-3,3E0,-8.410476E-3,1.2847254E-3,-2.4833714E-3,7.1195364E-3],"split_indices":[1,1,1,0,1,0,0,0,0],"split_type":[0,0,0,0,0,0,0,0,0],"sum_hessian":[1.51E2,9E1,6.1E1,3.6E1,5.4E1,3.5E1,2.6E1,2.4E1,3E1],"tree_param":{"num_deleted":"0","num_feature":"2","num_nodes":"9","size_leaf_vector":"1"}},{"base_weights":[-1.0060344E-2,6.9828006E-3,-3.350905E-2,-5.1249947E-2,3.3676315E-3,-2.7551828E-3,-8.8774795E-3],"categories":[],"categories_nodes":[],"categories_segments":[],"categories_sizes":[],"default_left":[0,0,0,0,0,0,0],"id":13,"left_children":[1,-1,3,5,-1,-1,-1],"loss_changes":[2.7209195E-1,0E0,1.352219E-1,7.669896E-2,0E0,0E0,0E0],"parents":[2147483647,0,0,2,2,3,3],"right_children":[2,-1,4,6,-1,-1,-1],"split_conditions":[2E0,6.9828006E-3,5E0,4E0,3.3676315E-3,-2.7551828E-3,-8.8774795E-3],"split_indices":[1,0,1,1,0,0,0],"split_type":[0,0,0,0,0,0,0],"sum_hessian":[1.43E2,3.2E1,1.11E2,8.8E1,2.3E1,5.5E1,3.3E1],"tree_param":{"num_deleted":"0","num_feature":"2","num_nodes":"7","size_leaf_vector":"1"}},{"base_weights":[8.499939E-3,1.0778692E-2,-2.1186527E-2,-2.6005482E-2,-3.8760065E-4,-1.2043602E-2,-4.8236656E-3,-2.1737402E-3,-4.093959E-4],"categories":[],"categories_nodes":[],"categories_segments":[],"categories_sizes":[],"default_left":[0,0,0,0,0,0,0,0,0],"id":14,"left_children":[1,-1,3,5,-1,7,-1,-1,-1],"loss_changes":[4.355631E-1,0E0,9.408921E-3,2.7043667E-2,0E0,4.2264936E-3,0E0,0E0,0E0],"parents":[2147483647,0,0,2,2,3,3,5,5],"right_children":[2,-1,4,6,-1,8,-1,-1,-1],"split_conditions":[2E0,1.0778692E-2,5E0,4E0,-3.8760065E-4,3E0,-4.8236656E-3,-2.1737402E-3,-4.093959E-4],"split_indices":[1,0,1,1,0,1,0,0,0],"split_type":[0,0,0,0,0,0,0,0,0],"sum_hessian":[1.46E2,3.3E1,1.13E2,8.8E1,2.5E1,5.5E1,3.3E1,2.4E1,3.1E1],"tree_param":{"num_deleted":"0","num_feature":"2","num_nodes":"9","size_leaf_vector":"1"}},{"base_weights":[-1.3412123E-2,6.485091E-3,-3.7701398E-2,-1.0070476E-2,-2.1522133E-2,-1.3458737E-3,-4.6607307E-3],"categories":[],"categories_nodes":[],"categories_segments":[],"categories_sizes":[],"default_left":[0,0,0,0,0,0,0],"id":15,"left_children":[1,-1,3,-1,5,-1,-1],"loss_changes":[2.7238017E-1,0E0,1.0894154E-1,0E0,1.717263E-2,0E0,0E0],"parents":[2147483647,0,0,2,2,4,4],"right_children":[2,-1,4,-1,6,-1,-1],"split_conditions":[2E0,6.485091E-3,3E0,-1.0070476E-2,5E0,-1.3458737E-3,-4.6607307E-3],"split_indices":[1,0,1,0,1,0,0],"split_type":[0,0,0,0,0,0,0],"sum_hessian":[1.41E2,3.3E1,1.08E2,2.1E1,8.7E1,6.7E1,2E1],"tree_param":{"num_deleted":"0","num_feature":"2","num_nodes":"7","size_leaf_vector":"1"}},{"base_weights":[1.2601012E-2,8.9446725E-3,-1.1484816E-2,8.265463E-3,-3.0324642E-2,-2.5044933E-3,3.1949014E-3,-5.3463336E-3,7.8653137E-4],"categories":[],"categories_nodes":[],"categories_segments":[],"categories_sizes":[],"default_left":[0,0,0,0,0,0,0,0,0],"id":16,"left_children":[1,-1,3,5,7,-1,-1,-1,-1],"loss_changes":[2.6385403E-1,0E0,4.0808655E-2,4.3401215E-2,4.9905796E-2,0E0,0E0,0E0,0E0],"parents":[2147483647,0,0,2,2,3,3,4,4],"right_children":[2,-1,4,6,8,-1,-1,-1,-1],"split_conditions":[2E0,8.9446725E-3,4E0,3E0,5E0,-2.5044933E-3,3.1949014E-3,-5.3463336E-3,7.8653137E-4],"split_indices":[1,0,1,1,1,0,0,0,0],"split_type":[0,0,0,0,0,0,0,0,0],"sum_hessian":[1.41E2,3.3E1,1.08E2,5.3E1,5.5E1,2.2E1,3.1E1,3.4E1,2.1E1],"tree_param":{"num_deleted":"0","num_feature":"2","num_nodes":"9","size_leaf_vector":"1"}},{"base_weights":[1.7012415E-2,-3.4914135E-3,3.023648E-1,-2.1975061E-1,2.0375675E-2,5.86535E-2,-9.911239E-2,-5.080166E-3,-3.814422E-2,5.8188062E-2,-1.7325771E-1,-1.9412573E-2,2.8938414E-3,2.1003546E-2,2.717205E-3,-2.1688055E-2,-2.805388E-3],"categories":[],"categories_nodes":[],"categories_segments":[],"categories_sizes":[],"default_left":[0,0,0,0,0,0,0,0,0,0,0,0,0,0,0,0,0],"id":17,"left_children":[1,3,5,7,9,-1,11,-1,-1,13,15,-1,-1,-1,-1,-1,-1],"loss_changes":[8.7282735E-1,7.270844E-1,1.1990113E0,3.6306888E-1,9.3994266E-1,0E0,6.645036E-2,0E0,0E0,4.982309E-1,1.2693387E-1,0E0,0E0,0E0,0E0,0E0,0E0],"parents":[2147483647,0,0,1,1,2,2,3,3,4,4,6,6,9,9,10,10],"right_children":[2,4,6,8,10,-1,12,-1,-1,14,16,-1,-1,-1,-1,-1,-1],"split_conditions":[4.7E1,6E0,4.9E1,3E0,4.1E1,5.86535E-2,5E1,-5.080166E-3,-3.814422E-2,1E1,4.5E1,-1.9412573E-2,2.8938414E-3,2.1003546E-2,2.717205E-3,-2.1688055E-2,-2.805388E-3],"split_indices":[0,0,0,0,0,0,0,0,0,0,0,0,0,0,0,0,0],"split_type":[0,0,0,0,0,0,0,0,0,0,0,0,0,0,0,0,0],"sum_hessian":[1.48E2,1.39E2,9E0,1.3E1,1.26E2,5E0,4E0,7E0,6E0,1.06E2,2E1,2E0,2E0,1.7E1,8.9E1,1.5E1,5E0],"tree_param":{"num_deleted":"0","num_feature":"2","num_nodes":"17","size_leaf_vector":"1"}},{"base_weights":[2.6113724E-2,1.2508616E-1,-4.96539E-4,-7.3180184E-2,2.3242472E-1,-9.3083255E-2,4.8733067E-2,2.0420559E-2,-2.6548682E-2,6.468335E-2,1.5475889E-1,-2.6843151E-2,-2.7731964E-1,2.50835E-1,5.124576E-3,6.977897E-3,-5.87222E-3,-2.4540683E-2,1.9062404E-2,-8.535124E-3,4.0405136E-2,-1.9088343E-2,-3.8086213E-2,1.6758954E-3,3.4278955E-2,-2.4290144E-2,4.352302E-3],"categories":[],"categories_nodes":[],"categories_segments":[],"categories_sizes":[],"default_left":[0,0,0,0,0,0,0,0,0,0,0,0,0,0,0,0,0,0,0,0,0,0,0,0,0,0,0],"id":18,"left_children":[1,3,5,7,9,11,13,15,-1,-1,17,19,21,23,25,-1,-1,-1,-1,-1,-1,-1,-1,-1,-1,-1,-1],"loss_changes":[3.977481E-1,6.980209E-1,5.5149716E-1,2.2142191E-1,5.757903E-1,5.0511706E-1,6.9497E-1,3.925482E-2,0E0,0E0,3.1946844E-1,8.4123236E-1,2.5747776E-2,2.9559618E-1,6.391434E-1,0E0,0E0,0E0,0E0,0E0,0E0,0E0,0E0,0E0,0E0,0E0,0E0],"parents":[2147483647,0,0,1,1,2,2,3,3,4,4,5,5,6,6,7,7,10,10,11,11,12,12,13,13,14,14],"right_children":[2,4,6,8,10,12,14,16,-1,-1,18,20,22,24,26,-1,-1,-1,-1,-1,-1,-1,-1,-1,-1,-1,-1],"split_conditions":[1E1,4E0,2.6E1,3E0,5E0,2.3E1,2.9E1,2E0,-2.6548682E-2,6.468335E-2,6E0,2.2E1,2.5E1,2.7E1,3.3E1,6.977897E-3,-5.87222E-3,-2.4540683E-2,1.9062404E-2,-8.535124E-3,4.0405136E-2,-1.9088343E-2,-3.8086213E-2,1.6758954E-3,3.4278955E-2,-2.4290144E-2,4.352302E-3],"split_indices":[0,0,0,0,0,0,0,0,0,0,0,0,0,0,0,0,0,0,0,0,0,0,0,0,0,0,0],"split_type":[0,0,0,0,0,0,0,0,0,0,0,0,0,0,0,0,0,0,0,0,0,0,0,0,0,0,0],"sum_hessian":[1.5E2,3.1E1,1.19E2,1.1E1,2E1,4.1E1,7.8E1,8E0,3E0,2E0,1.8E1,3.1E1,1E1,1.3E1,6.5E1,5E0,3E0,1E0,1.7E1,2.8E1,3E0,7E0,3E0,4E0,9E0,8E0,5.7E1],"tree_param":{"num_deleted":"0","num_feature":"2","num_nodes":"27","size_leaf_vector":"1"}},{"base_weights":[-1.009044E-2,4.3809274E-3,-2.5538191E-2,-9.990095E-3,-2.7594685E-3,4.2431853E-3,-2.7726818E-2,-4.3727835E-3,-7.582269E-4],"categories":[],"categories_nodes":[],"categories_segments":[],"categories_sizes":[],"default_left":[0,0,0,0,0,0,0,0,0],"id":19,"left_children":[1,-1,3,-1,5,-1,7,-1,-1],"loss_changes":[1.1935216E-1,0E0,1.8774599E-1,0E0,9.821095E-2,0E0,1.7719105E-2,0E0,0E0],"parents":[2147483647,0,0,2,2,4,4,6,6],"right_children":[2,-1,4,-1,6,-1,8,-1,-1],"split_conditions":[2E0,4.3809274E-3,3E0,-9.990095E-3,4E0,4.2431853E-3,5E0,-4.3727835E-3,-7.582269E-4],"split_indices":[1,0,1,0,1,0,1,0,0],"split_type":[0,0,0,0,0,0,0,0,0],"sum_hessian":[1.41E2,3.1E1,1.1E2,2.5E1,8.5E1,3E1,5.5E1,3E1,2.5E1],"tree_param":{"num_deleted":"0","num_feature":"2","num_nodes":"9","size_leaf_vector":"1"}},{"base_weights":[2.9727077E-2,6.4479016E-2,-1.9185089E-2,8.670272E-3,4.942503E-3,1.9226929E-4,-5.180636E-3],"categories":[],"categories_nodes":[],"categories_segments":[],"categories_sizes":[],"default_left":[0,0,0,0,0,0,0],"id":20,"left_children":[1,3,5,-1,-1,-1,-1],"loss_changes":[2.4770695E-1,2.4151921E-2,4.2101927E-2,0E0,0E0,0E0,0E0],"parents":[2147483647,0,0,1,1,2,2],"right_children":[2,4,6,-1,-1,-1,-1],"split_conditions":[4E0,2E0,5E0,8.670272E-3,4.942503E-3,1.9226929E-4,-5.180636E-3],"split_indices":[1,1,1,0,0,0,0],"split_type":[0,0,0,0,0,0,0],"sum_hessian":[1.44E2,8.4E1,6E1,3.2E1,5.2E1,3.7E1,2.3E1],"tree_param":{"num_deleted":"0","num_feature":"2","num_nodes":"7","size_leaf_vector":"1"}},{"base_weights":[-1.1142547E-3,-1.1499884E-2,4.753506E-3,2.8326043E-3,-2.4946224E-2,-5.8302423E-3,-1.0784201E-2,3.1068134E-3,-4.515373E-3],"categories":[],"categories_nodes":[],"categories_segments":[],"categories_sizes":[],"default_left":[0,0,0,0,0,0,0,0,0],"id":21,"left_children":[1,3,-1,-1,5,-1,7,-1,-1],"loss_changes":[7.178742E-2,6.3361645E-2,0E0,0E0,4.0941678E-2,0E0,9.202488E-2,0E0,0E0],"parents":[2147483647,0,0,1,1,4,4,6,6],"right_children":[2,4,-1,-1,6,-1,8,-1,-1],"split_conditions":[5E0,2E0,4.753506E-3,2.8326043E-3,3E0,-5.8302423E-3,4E0,3.1068134E-3,-4.515373E-3],"split_indices":[1,1,0,0,1,0,1,0,0],"split_type":[0,0,0,0,0,0,0,0,0],"sum_hessian":[1.4E2,1.16E2,2.4E1,2.9E1,8.7E1,2.5E1,6.2E1,2.8E1,3.4E1],"tree_param":{"num_deleted":"0","num_feature":"2","num_nodes":"9","size_leaf_vector":"1"}},{"base_weights":[9.103679E-3,3.4340618E-3,2.2008703E-3,-1.3093571E-2,1.6920052E-2,9.887766E-4,-3.4038485E-3,2.370014E-3,7.293536E-4],"categories":[],"categories_nodes":[],"categories_segments":[],"categories_sizes":[],"default_left":[0,0,0,0,0,0,0,0,0],"id":22,"left_children":[1,-1,3,5,7,-1,-1,-1,-1],"loss_changes":[2.4313224E-2,0E0,2.5210047E-2,2.6810382E-2,3.5474543E-3,0E0,0E0,0E0,0E0],"parents":[2147483647,0,0,2,2,3,3,4,4],"right_children":[2,-1,4,6,8,-1,-1,-1,-1],"split_conditions":[2E0,3.4340618E-3,4E0,3E0,5E0,9.887766E-4,-3.4038485E-3,2.370014E-3,7.293536E-4],"split_indices":[1,0,1,1,1,0,0,0,0],"split_type":[0,0,0,0,0,0,0,0,0],"sum_hessian":[1.39E2,2.9E1,1.1E2,5.4E1,5.6E1,2.6E1,2.8E1,3.2E1,2.4E1],"tree_param":{"num_deleted":"0","num_feature":"2","num_nodes":"9","size_leaf_vector":"1"}},{"base_weights":[-2.7917758E-2,5.398059E-3,-5.297799E-2,-9.276599E-3,-4.1976836E-2,-5.4058167E-3,-3.4795832E-3],"categories":[],"categories_nodes":[],"categories_segments":[],"categories_sizes":[],"default_left":[0,0,0,0,0,0,0],"id":23,"left_children":[1,-1,3,-1,5,-1,-1],"loss_changes":[2.963518E-1,0E0,4.425451E-2,0E0,5.753547E-3,0E0,0E0],"parents":[2147483647,0,0,2,2,4,4],"right_children":[2,-1,4,-1,6,-1,-1],"split_conditions":[2E0,5.398059E-3,3E0,-9.276599E-3,4E0,-5.4058167E-3,-3.4795832E-3],"split_indices":[1,0,1,0,1,0,0],"split_type":[0,0,0,0,0,0,0],"sum_hessian":[1.42E2,3.3E1,1.09E2,2.2E1,8.7E1,3E1,5.7E1],"tree_param":{"num_deleted":"0","num_feature":"2","num_nodes":"7","size_leaf_vector":"1"}},{"base_weights":[3.1527057E-2,4.189453E-3,5.0551094E-2,1.7156862E-3,-1.3926552E-3,3.8134835E-3,5.652168E-3],"categories":[],"categories_nodes":[],"categories_segments":[],"categories_sizes":[],"default_left":[0,0,0,0,0,0,0],"id":24,"left_children":[1,3,5,-1,-1,-1,-1],"loss_changes":[7.571867E-2,1.456891E-2,4.2199343E-3,0E0,0E0,0E0,0E0],"parents":[2147483647,0,0,1,1,2,2],"right_children":[2,4,6,-1,-1,-1,-1],"split_conditions":[3E0,2E0,4E0,1.7156862E-3,-1.3926552E-3,3.8134835E-3,5.652168E-3],"split_indices":[1,1,1,0,0,0,0],"split_type":[0,0,0,0,0,0,0],"sum_hessian":[1.45E2,6E1,8.5E1,3.5E1,2.5E1,3E1,5.5E1],"tree_param":{"num_deleted":"0","num_feature":"2","num_nodes":"7","size_leaf_vector":"1"}},{"base_weights":[6.171798E-3,-1.2848765E-3,4.513205E-3,3.1594497E-3,-1.3461667E-2,-3.3103493E-3,-3.1440256E-3,-6.978477E-4,-3.1999567E-5],"categories":[],"categories_nodes":[],"categories_segments":[],"categories_sizes":[],"default_left":[0,0,0,0,0,0,0,0,0],"id":25,"left_children":[1,3,-1,-1,5,7,-1,-1,-1],"loss_changes":[4.160148E-2,4.88695E-2,0E0,0E0,1.6138988E-2,6.339688E-4,0E0,0E0,0E0],"parents":[2147483647,0,0,1,1,4,4,5,5],"right_children":[2,4,-1,-1,6,8,-1,-1,-1],"split_conditions":[5E0,2E0,4.513205E-3,3.1594497E-3,4E0,3E0,-3.1440256E-3,-6.978477E-4,-3.1999567E-5],"split_indices":[1,1,0,0,1,1,0,0,0],"split_type":[0,0,0,0,0,0,0,0,0],"sum_hessian":[1.42E2,1.2E2,2.2E1,3.2E1,8.8E1,5.7E1,3.1E1,2.5E1,3.2E1],"tree_param":{"num_deleted":"0","num_feature":"2","num_nodes":"9","size_leaf_vector":"1"}},{"base_weights":[3.5797423E-3,7.090673E-3,-1.3572451E-3,-1.0027478E-3,2.735208E-3,1.2374042E-2,-2.4888439E-3,5.856431E-4,1.9881714E-3],"categories":[],"categories_nodes":[],"categories_segments":[],"categories_sizes":[],"default_left":[0,0,0,0,0,0,0,0,0],"id":26,"left_children":[1,3,-1,5,-1,7,-1,-1,-1],"loss_changes":[9.189483E-3,2.068942E-2,0E0,2.938373E-2,0E0,2.770558E-3,0E0,0E0,0E0],"parents":[2147483647,0,0,1,1,3,3,5,5],"right_children":[2,4,-1,6,-1,8,-1,-1,-1],"split_conditions":[5E0,4E0,-1.3572451E-3,3E0,2.735208E-3,2E0,-2.4888439E-3,5.856431E-4,1.9881714E-3],"split_indices":[1,1,0,1,0,1,0,0,0],"split_type":[0,0,0,0,0,0,0,0,0],"sum_hessian":[1.5E2,1.25E2,2.5E1,9E1,3.5E1,5.8E1,3.2E1,3.2E1,2.6E1],"tree_param":{"num_deleted":"0","num_feature":"2","num_nodes":"9","size_leaf_vector":"1"}},{"base_weights":[2.0547775E-3,-7.307648E-3,4.9951593E-3,6.4208577E-3,-3.939069E-3,-1.357269E-3,2.2858956E-3,2.934606E-4,-7.08259E-4],"categories":[],"categories_nodes":[],"categories_segments":[],"categories_sizes":[],"default_left":[0,0,0,0,0,0,0,0,0],"id":27,"left_children":[1,3,-1,5,-1,7,-1,-1,-1],"loss_changes":[6.583586E-2,5.442854E-2,0E0,1.1154638E-2,0E0,1.4951263E-3,0E0,0E0,0E0],"parents":[2147483647,0,0,1,1,3,3,5,5],"right_children":[2,4,-1,6,-1,8,-1,-1,-1],"split_conditions":[5E0,4E0,4.9951593E-3,3E0,-3.939069E-3,2E0,2.2858956E-3,2.934606E-4,-7.08259E-4],"split_indices":[1,1,0,1,0,1,0,0,0],"split_type":[0,0,0,0,0,0,0,0,0],"sum_hessian":[1.45E2,1.22E2,2.3E1,8.6E1,3.6E1,5.9E1,2.7E1,3.4E1,2.5E1],"tree_param":{"num_deleted":"0","num_feature":"2","num_nodes":"9","size_leaf_vector":"1"}},{"base_weights":[-1.701376E-2,1.07175E-2,-8.1543446E-2,-2.6348121E-2,5.2281003E-2,-1.3595144E-1,1.1703891E-1,-2.0915428E-3,-1.5881132E-1,-1.5211071E-1,-3.249659E-3,3.1623974E-1,-2.6082227E-2,-3.89141E-3,4.0325537E-2,-2.5410796E-2,8.260352E-3,-1.171674E-2,-1.8367684E-2,2.02763E-2,4.9855005E-2],"categories":[],"categories_nodes":[],"categories_segments":[],"categories_sizes":[],"default_left":[0,0,0,0,0,0,0,0,0,0,0,0,0,0,0,0,0,0,0,0,0],"id":28,"left_children":[1,3,5,7,-1,9,11,13,15,17,-1,19,-1,-1,-1,-1,-1,-1,-1,-1,-1],"loss_changes":[2.621394E-1,1.9688209E0,4.913083E-1,3.113389E-1,0E0,5.3568244E-2,8.35185E-1,1.254543E0,3.6608046E-1,1.1569858E-2,0E0,4.3728292E-2,0E0,0E0,0E0,0E0,0E0,0E0,0E0,0E0,0E0],"parents":[2147483647,0,0,1,1,2,2,3,3,5,5,6,6,7,7,8,8,9,9,11,11],"right_children":[2,4,6,8,-1,10,12,14,16,18,-1,20,-1,-1,-1,-1,-1,-1,-1,-1,-1],"split_conditions":[3.6E1,3.4E1,4.7E1,2.9E1,5.2281003E-2,4.5E1,4.9E1,2.7E1,3.3E1,4.1E1,-3.249659E-3,4.8E1,-2.6082227E-2,-3.89141E-3,4.0325537E-2,-2.5410796E-2,8.260352E-3,-1.171674E-2,-1.8367684E-2,2.02763E-2,4.9855005E-2],"split_indices":[0,0,0,0,0,0,0,0,0,0,0,0,0,0,0,0,0,0,0,0,0],"split_type":[0,0,0,0,0,0,0,0,0,0,0,0,0,0,0,0,0,0,0,0,0],"sum_hessian":[1.45E2,1.02E2,4.3E1,9.6E1,6E0,3.4E1,9E0,8.2E1,1.4E1,2.9E1,5E0,6E0,3E0,7.6E1,6E0,1E1,4E0,1.6E1,1.3E1,5E0,1E0],"tree_param":{"num_deleted":"0","num_feature":"2","num_nodes":"21","size_leaf_vector":"1"}},{"base_weights":[1.14689255E-2,-4.002769E-2,6.8098E-2,-2.1206045E-3,-2.2065221E-1,3.717969E-2,1.546941E-2,-2.7885891E-2,3.8488884E-2,-2.4417107E-1,-1.0669199E-2,-3.0916138E-2,1.6677411E-1,4.872354E-3,-9.644176E-3,-1.46662835E-2,-3.537677E-2,1.0792709E-2,-1.0157987E-2,2.6960878E-2,-7.2250026E-3],"categories":[],"categories_nodes":[],"categories_segments":[],"categories_sizes":[],"default_left":[0,0,0,0,0,0,0,0,0,0,0,0,0,0,0,0,0,0,0,0,0],"id":29,"left_children":[1,3,5,7,9,-1,11,13,-1,15,-1,17,19,-1,-1,-1,-1,-1,-1,-1,-1],"loss_changes":[4.16827E-1,5.1305324E-1,1.0811093E0,6.3893175E-1,8.791685E-3,0E0,4.1923875E-1,3.1982052E-1,0E0,5.4981172E-2,0E0,4.6227753E-1,3.6359873E-1,0E0,0E0,0E0,0E0,0E0,0E0,0E0,0E0],"parents":[2147483647,0,0,1,1,2,2,3,3,4,4,6,6,7,7,9,9,11,11,12,12],"right_children":[2,4,6,8,10,-1,12,14,-1,16,-1,18,20,-1,-1,-1,-1,-1,-1,-1,-1],"split_conditions":[2.7E1,2.3E1,3E1,2.2E1,2.6E1,3.717969E-2,4.5E1,9E0,3.8488884E-2,2.5E1,-1.0669199E-2,3.6E1,4.9E1,4.872354E-3,-9.644176E-3,-1.46662835E-2,-3.537677E-2,1.0792709E-2,-1.0157987E-2,2.6960878E-2,-7.2250026E-3],"split_indices":[0,0,0,0,0,0,0,0,0,0,0,0,0,0,0,0,0,0,0,0,0],"split_type":[0,0,0,0,0,0,0,0,0,0,0,0,0,0,0,0,0,0,0,0,0],"sum_hessian":[1.41E2,7.4E1,6.7E1,6.2E1,1.2E1,9E0,5.8E1,5.9E1,3E0,9E0,3E0,4.5E1,1.3E1,2.8E1,3.1E1,6E0,3E0,1.5E1,3E1,9E0,4E0],"tree_param":{"num_deleted":"0","num_feature":"2","num_nodes":"21","size_leaf_vector":"1"}},{"base_weights":[-7.5465473E-3,-2.4799996E-3,-2.499142E-2,-1.6260982E-2,2.7152523E-1,7.5750737E-3,-1.5055764E-1,1.6339872E-2,4.6014216E-2,-1.9978338E-3,9.783718E-3,-2.2409584E-2,-8.806522E-3],"categories":[],"categories_nodes":[],"categories_segments":[],"categories_sizes":[],"default_left":[0,0,0,0,0,0,0,0,0,0,0,0,0],"id":30,"left_children":[1,3,-1,5,7,9,11,-1,-1,-1,-1,-1,-1],"loss_changes":[1.798914E-1,5.5194414E-1,0E0,4.4609374E-1,6.757474E-2,2.9791108E-1,7.6772094E-2,0E0,0E0,0E0,0E0,0E0,0E0],"parents":[2147483647,0,0,1,1,3,3,4,4,5,5,6,6],"right_children":[2,4,-1,6,8,10,12,-1,-1,-1,-1,-1,-1],"split_conditions":[4.9E1,4.7E1,-2.499142E-2,4.1E1,4.8E1,3.3E1,4.4E1,1.6339872E-2,4.6014216E-2,-1.9978338E-3,9.783718E-3,-2.2409584E-2,-8.806522E-3],"split_indices":[0,0,0,0,0,0,0,0,0,0,0,0,0],"split_type":[0,0,0,0,0,0,0,0,0,0,0,0,0],"sum_hessian":[1.46E2,1.44E2,2E0,1.38E2,6E0,1.18E2,2E1,5E0,1E0,9.1E1,2.7E1,8E0,1.2E1],"tree_param":{"num_deleted":"0","num_feature":"2","num_nodes":"13","size_leaf_vector":"1"}},{"base_weights":[-3.625973E-2,-2.7290732E-2,-1.8328868E-2,2.658962E-2,-1.24552056E-1,1.5452032E-2,5.3676154E-2,-1.3855442E-1,1.1754036E-3,3.209395E-2,1.8542087E-4,-1.1812638E-2,-2.7244722E-2,4.3713506E-2,-2.1709828E-2],"categories":[],"categories_nodes":[],"categories_segments":[],"categories_sizes":[],"default_left":[0,0,0,0,0,0,0,0,0,0,0,0,0,0,0],"id":31,"left_children":[1,-1,3,5,7,9,-1,11,13,-1,-1,-1,-1,-1,-1],"loss_changes":[6.017892E-1,0E0,6.4267737E-1,5.315041E-1,7.058215E-2,3.8987756E-1,0E0,6.628287E-2,5.706938E-1,0E0,0E0,0E0,0E0,0E0,0E0],"parents":[2147483647,0,0,2,2,3,3,4,4,5,5,7,7,8,8],"right_children":[2,-1,4,6,8,10,-1,12,14,-1,-1,-1,-1,-1,-1],"split_conditions":[4E0,-2.7290732E-2,3.9E1,3.8E1,4.8E1,5E0,5.3676154E-2,4.7E1,4.9E1,3.209395E-2,1.8542087E-4,-1.1812638E-2,-2.7244722E-2,4.3713506E-2,-2.1709828E-2],"split_indices":[0,0,0,0,0,0,0,0,0,0,0,0,0,0,0],"split_type":[0,0,0,0,0,0,0,0,0,0,0,0,0,0,0],"sum_hessian":[1.42E2,9E0,1.33E2,9.4E1,3.9E1,9.3E1,1E0,3.5E1,4E0,3E0,9E1,3.2E1,3E0,1E0,3E0],"tree_param":{"num_deleted":"0","num_feature":"2","num_nodes":"15","size_leaf_vector":"1"}},{"base_weights":[-8.44301E-3,7.11404E-2,-3.4440655E-2,4.769413E-2,3.2878216E-2,-1.2691127E-1,1.0474841E-2,6.619873E-2,-2.9998336E-2,-7.88931E-2,-2.3760194E-1,2.217472E-1,-2.6962558E-2,-4.260759E-3,1.1784361E-2,-1.4554131E-2,3.5738148E-2,-1.6376475E-2,-3.2587584E-2,2.429626E-3,3.1743564E-2,-2.4636758E-2,1.511361E-3],"categories":[],"categories_nodes":[],"categories_segments":[],"categories_sizes":[],"default_left":[0,0,0,0,0,0,0,0,0,0,0,0,0,0,0,0,0,0,0,0,0,0,0],"id":32,"left_children":[1,3,5,7,-1,9,11,13,-1,15,17,19,21,-1,-1,-1,-1,-1,-1,-1,-1,-1,-1],"loss_changes":[3.1900424E-1,2.1386705E-1,4.8311955E-1,2.5146925E-1,0E0,1.83231E-1,6.308284E-1,2.0169614E-1,0E0,8.6616755E-1,1.8329918E-2,2.190128E-1,6.3148063E-1,0E0,0E0,0E0,0E0,0E0,0E0,0E0,0E0,0E0,0E0],"parents":[2147483647,0,0,1,1,2,2,3,3,5,5,6,6,7,7,9,9,10,10,11,11,12,12],"right_children":[2,4,6,8,-1,10,12,14,-1,16,18,20,22,-1,-1,-1,-1,-1,-1,-1,-1,-1,-1],"split_conditions":[1.2E1,1.1E1,2.6E1,1E1,3.2878216E-2,2.3E1,2.9E1,4E0,-2.9998336E-2,2.2E1,2.5E1,2.7E1,3.3E1,-4.260759E-3,1.1784361E-2,-1.4554131E-2,3.5738148E-2,-1.6376475E-2,-3.2587584E-2,2.429626E-3,3.1743564E-2,-2.4636758E-2,1.511361E-3],"split_indices":[0,0,0,0,0,0,0,0,0,0,0,0,0,0,0,0,0,0,0,0,0,0,0],"split_type":[0,0,0,0,0,0,0,0,0,0,0,0,0,0,0,0,0,0,0,0,0,0,0],"sum_hessian":[1.52E2,3.7E1,1.15E2,3.5E1,2E0,3.7E1,7.8E1,3.4E1,1E0,2.7E1,1E1,1.1E1,6.7E1,1.1E1,2.3E1,2.4E1,3E0,7E0,3E0,4E0,7E0,1E1,5.7E1],"tree_param":{"num_deleted":"0","num_feature":"2","num_nodes":"23","size_leaf_vector":"1"}},{"base_weights":[1.1981246E-2,1.1947082E-1,-2.1207673E-2,2.2721503E-2,1.8447185E-1,-1.15513235E-1,2.6248073E-2,1.0041819E-1,-2.9563908E-2,6.541697E-2,1.22034766E-1,-6.5669596E-2,-2.1829301E-1,1.1617433E-1,-4.0191825E-2,3.1147634E-3,2.978473E-2,-7.881658E-3,1.8505063E-2,-1.0846905E-2,2.8434945E-2,-1.4943533E-2,-3.0143514E-2,4.626835E-3,3.026322E-2,-9.676452E-3,5.4250783E-3],"categories":[],"categories_nodes":[],"categories_segments":[],"categories_sizes":[],"default_left":[0,0,0,0,0,0,0,0,0,0,0,0,0,0,0,0,0,0,0,0,0,0,0,0,0,0,0],"id":33,"left_children":[1,3,5,7,9,11,13,15,-1,-1,17,19,21,23,25,-1,-1,-1,-1,-1,-1,-1,-1,-1,-1,-1,-1],"loss_changes":[4.8414114E-1,1.9705027E-1,4.6846744E-1,3.7598535E-1,4.7737318E-1,1.6496694E-1,4.2289764E-1,1.5483508E-1,0E0,0E0,2.4240783E-1,4.0535873E-1,1.7929673E-2,3.7703332E-1,2.2430733E-1,0E0,0E0,0E0,0E0,0E0,0E0,0E0,0E0,0E0,0E0,0E0,0E0],"parents":[2147483647,0,0,1,1,2,2,3,3,4,4,5,5,6,6,7,7,10,10,11,11,12,12,13,13,14,14],"right_children":[2,4,6,8,10,12,14,16,-1,-1,18,20,22,24,26,-1,-1,-1,-1,-1,-1,-1,-1,-1,-1,-1,-1],"split_conditions":[1.2E1,6E0,2.6E1,5E0,7E0,2.3E1,3.6E1,4E0,-2.9563908E-2,6.541697E-2,8E0,2.2E1,2.5E1,3.4E1,4.4E1,3.1147634E-3,2.978473E-2,-7.881658E-3,1.8505063E-2,-1.0846905E-2,2.8434945E-2,-1.4943533E-2,-3.0143514E-2,4.626835E-3,3.026322E-2,-9.676452E-3,5.4250783E-3],"split_indices":[0,0,0,0,0,0,0,0,0,0,0,0,0,0,0,0,0,0,0,0,0,0,0,0,0,0,0],"split_type":[0,0,0,0,0,0,0,0,0,0,0,0,0,0,0,0,0,0,0,0,0,0,0,0,0,0,0],"sum_hessian":[1.34E2,3.1E1,1.03E2,1.3E1,1.8E1,3.4E1,6.9E1,1.1E1,2E0,1E0,1.7E1,2.4E1,1E1,2.9E1,4E1,9E0,2E0,4E0,1.3E1,2.2E1,2E0,7E0,3E0,2.2E1,7E0,2.5E1,1.5E1],"tree_param":{"num_deleted":"0","num_feature":"2","num_nodes":"27","size_leaf_vector":"1"}},{"base_weights":[-4.1456907E-3,1.7687473E-2,-6.338081E-2,8.0653345E-3,5.1400602E-2,-1.1572111E-1,9.997815E-2,-2.0548614E-2,6.347953E-2,-1.2906045E-1,-4.0853685E-3,2.6055062E-1,-2.0601822E-2,1.2796416E-3,-2.0056253E-2,2.665464E-2,-3.653175E-3,-5.9075602E-3,-1.5299479E-2,1.667057E-2,4.118101E-2],"categories":[],"categories_nodes":[],"categories_segments":[],"categories_sizes":[],"default_left":[0,0,0,0,0,0,0,0,0,0,0,0,0,0,0,0,0,0,0,0,0],"id":34,"left_children":[1,3,5,7,-1,9,11,13,15,17,-1,19,-1,-1,-1,-1,-1,-1,-1,-1,-1],"loss_changes":[1.8735482E-1,5.020728E-1,3.450296E-1,1.6779439E-1,0E0,2.4687886E-2,5.4502416E-1,4.2274636E-1,7.408606E-1,3.283775E-2,0E0,3.071341E-2,0E0,0E0,0E0,0E0,0E0,0E0,0E0,0E0,0E0],"parents":[2147483647,0,0,1,1,2,2,3,3,5,5,6,6,7,7,8,8,9,9,11,11],"right_children":[2,4,6,8,-1,10,12,14,16,18,-1,20,-1,-1,-1,-1,-1,-1,-1,-1,-1],"split_conditions":[3.9E1,3.8E1,4.7E1,2.6E1,5.1400602E-2,4.5E1,4.9E1,2.3E1,2.9E1,4E1,-4.0853685E-3,4.8E1,-2.0601822E-2,1.2796416E-3,-2.0056253E-2,2.665464E-2,-3.653175E-3,-5.9075602E-3,-1.5299479E-2,1.667057E-2,4.118101E-2],"split_indices":[0,0,0,0,0,0,0,0,0,0,0,0,0,0,0,0,0,0,0,0,0],"split_type":[0,0,0,0,0,0,0,0,0,0,0,0,0,0,0,0,0,0,0,0,0],"sum_hessian":[1.43E2,1.05E2,3.8E1,1.04E2,1E0,2.9E1,9E0,6.9E1,3.5E1,2.4E1,5E0,6E0,3E0,5.9E1,1E1,1.1E1,2.4E1,7E0,1.7E1,5E0,1E0],"tree_param":{"num_deleted":"0","num_feature":"2","num_nodes":"21","size_leaf_vector":"1"}},{"base_weights":[1.0175466E-2,2.5994701E-2,-1.5092553E-3,8.1702566E-4,3.6796199E-3],"categories":[],"categories_nodes":[],"categories_segments":[],"categories_sizes":[],"default_left":[0,0,0,0,0],"id":35,"left_children":[1,3,-1,-1,-1],"loss_changes":[5.995071E-2,1.741219E-2,0E0,0E0,0E0],"parents":[2147483647,0,0,1,1],"right_children":[2,4,-1,-1,-1],"split_conditions":[4E0,2E0,-1.5092553E-3,8.1702566E-4,3.6796199E-3],"split_indices":[1,1,0,0,0],"split_type":[0,0,0,0,0],"sum_hessian":[1.48E2,9.1E1,5.7E1,3.5E1,5.6E1],"tree_param":{"num_deleted":"0","num_feature":"2","num_nodes":"5","size_leaf_vector":"1"}},{"base_weights":[5.982344E-3,-4.7907415E-3,2.0332346E-2,3.874436E-3,1.536223E-2,7.515421E-3,3.7608661E-3,1.8047E-4,1.2276958E-3],"categories":[],"categories_nodes":[],"categories_segments":[],"categories_sizes":[],"default_left":[0,0,0,0,0,0,0,0,0],"id":36,"left_children":[1,-1,3,-1,5,7,-1,-1,-1],"loss_changes":[1.13878496E-1,0E0,1.0019947E-2,0E0,1.5951766E-2,1.8812702E-3,0E0,0E0,0E0],"parents":[2147483647,0,0,2,2,4,4,5,5],"right_children":[2,-1,4,-1,6,8,-1,-1,-1],"split_conditions":[2E0,-4.7907415E-3,3E0,3.874436E-3,5E0,4E0,3.7608661E-3,1.8047E-4,1.2276958E-3],"split_indices":[1,0,1,0,1,1,0,0,0],"split_type":[0,0,0,0,0,0,0,0,0],"sum_hessian":[1.45E2,3E1,1.15E2,2.3E1,9.2E1,6.9E1,2.3E1,3.2E1,3.7E1],"tree_param":{"num_deleted":"0","num_feature":"2","num_nodes":"9","size_leaf_vector":"1"}},{"base_weights":[-7.984405E-3,1.2634032E-2,-2.1644175E-2,-5.822875E-4,3.8413708E-3,-3.639541E-2,1.7768439E-3,-4.2842166E-3,-2.9836174E-3],"categories":[],"categories_nodes":[],"categories_segments":[],"categories_sizes":[],"default_left":[0,0,0,0,0,0,0,0,0],"id":37,"left_children":[1,3,5,-1,-1,7,-1,-1,-1],"loss_changes":[4.3646496E-2,2.9724088E-2,5.4715466E-2,0E0,0E0,1.597181E-3,0E0,0E0,0E0],"parents":[2147483647,0,0,1,1,2,2,5,5],"right_children":[2,4,6,-1,-1,8,-1,-1,-1],"split_conditions":[3E0,2E0,5E0,-5.822875E-4,3.8413708E-3,4E0,1.7768439E-3,-4.2842166E-3,-2.9836174E-3],"split_indices":[1,1,1,0,0,1,0,0,0],"split_type":[0,0,0,0,0,0,0,0,0],"sum_hessian":[1.53E2,6.1E1,9.2E1,3.6E1,2.5E1,6.7E1,2.5E1,3.1E1,3.6E1],"tree_param":{"num_deleted":"0","num_feature":"2","num_nodes":"9","size_leaf_vector":"1"}},{"base_weights":[2.0661965E-2,1.0325488E-2,6.9864043E-3,-5.256338E-4,1.6986689E-2,4.4350917E-3,4.845745E-3,3.940477E-4,5.4221123E-4],"categories":[],"categories_nodes":[],"categories_segments":[],"categories_sizes":[],"default_left":[0,0,0,0,0,0,0,0,0],"id":38,"left_children":[1,3,-1,-1,5,-1,7,-1,-1],"loss_changes":[7.302216E-2,1.2648322E-2,0E0,0E0,2.8024426E-2,0E0,9.940355E-6,0E0,0E0],"parents":[2147483647,0,0,1,1,4,4,6,6],"right_children":[2,4,-1,-1,6,-1,8,-1,-1],"split_conditions":[5E0,2E0,6.9864043E-3,-5.256338E-4,3E0,4.4350917E-3,4E0,3.940477E-4,5.4221123E-4],"split_indices":[1,1,0,0,1,0,1,0,0],"split_type":[0,0,0,0,0,0,0,0,0],"sum_hessian":[1.44E2,1.2E2,2.4E1,3.6E1,8.4E1,2.5E1,5.9E1,2.6E1,3.3E1],"tree_param":{"num_deleted":"0","num_feature":"2","num_nodes":"9","size_leaf_vector":"1"}},{"base_weights":[-3.2726093E-4,-1.2046078E-2,1.4352433E-1,2.217374E-3,-1.04881704E-1,2.4038552E-1,-2.07862E-2,-2.9710041E-2,1.1092496E-1,-1.7761929E-2,-5.3711305E-3,1.5003823E-2,3.9123464E-2,-1.2259816E-2,8.7954495E-3,-2.8365906E-4,-2.273385E-2,2.018599E-2,4.5559704E-3],"categories":[],"categories_nodes":[],"categories_segments":[],"categories_sizes":[],"default_left":[0,0,0,0,0,0,0,0,0,0,0,0,0,0,0,0,0,0,0],"id":39,"left_children":[1,3,5,7,9,11,13,15,17,-1,-1,-1,-1,-1,-1,-1,-1,-1,-1],"loss_changes":[2.4616563E-1,1.789937E-1,1.8006516E-1,4.1284436E-1,5.745603E-2,3.670147E-2,6.613857E-2,4.8796326E-1,1.5129095E-1,0E0,0E0,0E0,0E0,0E0,0E0,0E0,0E0,0E0,0E0],"parents":[2147483647,0,0,1,1,2,2,3,3,4,4,5,5,6,6,7,7,8,8],"right_children":[2,4,6,8,10,12,14,16,18,-1,-1,-1,-1,-1,-1,-1,-1,-1,-1],"split_conditions":[4.7E1,4.1E1,4.9E1,3.3E1,4.4E1,4.8E1,5E1,2.9E1,3.6E1,-1.7761929E-2,-5.3711305E-3,1.5003823E-2,3.9123464E-2,-1.2259816E-2,8.7954495E-3,-2.8365906E-4,-2.273385E-2,2.018599E-2,4.5559704E-3],"split_indices":[0,0,0,0,0,0,0,0,0,0,0,0,0,0,0,0,0,0,0],"split_type":[0,0,0,0,0,0,0,0,0,0,0,0,0,0,0,0,0,0,0],"sum_hessian":[1.44E2,1.34E2,1E1,1.17E2,1.7E1,6E0,4E0,9.1E1,2.6E1,6E0,1.1E1,5E0,1E0,2E0,2E0,8.1E1,1E1,1E1,1.6E1],"tree_param":{"num_deleted":"0","num_feature":"2","num_nodes":"19","size_leaf_vector":"1"}},{"base_weights":[1.369065E-2,3.4106996E-2,-4.6306852E-2,-1.986387E-3,2.3379903E-1,-7.290921E-2,1.0772394E-1,2.4525626E-2,-2.0667136E-1,3.57037E-2,1.3412042E-1,-9.677008E-2,-3.3614464E-2,3.7167292E-2,-1.9400451E-2,7.8671606E-4,1.6432298E-2,-9.556538E-3,-2.3639044E-2,4.981875E-3,4.8856854E-2,-5.937309E-3,-1.4544392E-2,-2.066028E-3,-3.8515646E-3,-1.14424955E-2,8.209086E-3],"categories":[],"categories_nodes":[],"categories_segments":[],"categories_sizes":[],"default_left":[0,0,0,0,0,0,0,0,0,0,0,0,0,0,0,0,0,0,0,0,0,0,0,0,0,0,0],"id":40,"left_children":[1,3,5,7,9,11,13,15,17,-1,19,21,23,-1,25,-1,-1,-1,-1,-1,-1,-1,-1,-1,-1,-1,-1],"loss_changes":[1.8286902E-1,8.0050373E-1,1.6356218E-1,5.2059674E-1,1.6094524E-1,2.768816E-2,2.0853676E-1,1.9665603E-1,1.3730884E-2,0E0,3.0434638E-1,2.776964E-2,9.312667E-5,0E0,5.7614055E-2,0E0,0E0,0E0,0E0,0E0,0E0,0E0,0E0,0E0,0E0,0E0,0E0],"parents":[2147483647,0,0,1,1,2,2,3,3,4,4,5,5,6,6,7,7,8,8,10,10,11,11,12,12,14,14],"right_children":[2,4,6,8,10,12,14,16,18,-1,20,22,24,-1,26,-1,-1,-1,-1,-1,-1,-1,-1,-1,-1,-1,-1],"split_conditions":[3.9E1,3.3E1,4.8E1,2.9E1,3.5E1,4.4E1,4.9E1,2.7E1,3E1,3.57037E-2,3.8E1,4.1E1,4.5E1,3.7167292E-2,5E1,7.8671606E-4,1.6432298E-2,-9.556538E-3,-2.3639044E-2,4.981875E-3,4.8856854E-2,-5.937309E-3,-1.4544392E-2,-2.066028E-3,-3.8515646E-3,-1.14424955E-2,8.209086E-3],"split_indices":[0,0,0,0,0,0,0,0,0,0,0,0,0,0,0,0,0,0,0,0,0,0,0,0,0,0,0],"split_type":[0,0,0,0,0,0,0,0,0,0,0,0,0,0,0,0,0,0,0,0,0,0,0,0,0,0,0],"sum_hessian":[1.47E2,1.1E2,3.7E1,9.4E1,1.6E1,3.2E1,5E0,8.4E1,1E1,6E0,1E1,1.9E1,1.3E1,1E0,4E0,7.6E1,8E0,3E0,7E0,9E0,1E0,1.2E1,7E0,5E0,8E0,2E0,2E0],"tree_param":{"num_deleted":"0","num_feature":"2","num_nodes":"27","size_leaf_vector":"1"}},{"base_weights":[-5.5976856E-2,7.459004E-2,-9.171409E-2,1.9567499E-2,5.114126E-2,-1.3417588E-1,-3.811793E-2,-1.17166385E-1,9.108728E-2,-8.1349865E-2,-2.605692E-1,7.284237E-2,-7.507711E-2,-3.148023E-3,-1.9235915E-2,2.623487E-2,5.412857E-3,-1.0905477E-2,2.5066784E-2,-3.6378186E-2,-2.0879375E-2,7.0394506E-4,4.6414014E-2,-1.0260568E-2,1.0260719E-2],"categories":[],"categories_nodes":[],"categories_segments":[],"categories_sizes":[],"default_left":[0,0,0,0,0,0,0,0,0,0,0,0,0,0,0,0,0,0,0,0,0,0,0,0,0],"id":41,"left_children":[1,3,5,-1,7,9,11,13,15,17,19,21,23,-1,-1,-1,-1,-1,-1,-1,-1,-1,-1,-1,-1],"loss_changes":[7.114221E-1,8.368969E-2,2.657044E-1,0E0,2.056458E-1,4.1947532E-1,2.2692285E-1,3.2602355E-2,1.377099E-1,4.6886548E-1,2.557838E-2,3.5721216E-1,2.1107528E-1,0E0,0E0,0E0,0E0,0E0,0E0,0E0,0E0,0E0,0E0,0E0,0E0],"parents":[2147483647,0,0,1,1,2,2,4,4,5,5,6,6,7,7,8,8,9,9,10,10,11,11,12,12],"right_children":[2,4,6,-1,8,10,12,14,16,18,20,22,24,-1,-1,-1,-1,-1,-1,-1,-1,-1,-1,-1,-1],"split_conditions":[1E1,2E0,3.4E1,1.9567499E-2,4E0,2.8E1,3.9E1,3E0,5E0,2.7E1,2.9E1,3.8E1,4.8E1,-3.148023E-3,-1.9235915E-2,2.623487E-2,5.412857E-3,-1.0905477E-2,2.5066784E-2,-3.6378186E-2,-2.0879375E-2,7.0394506E-4,4.6414014E-2,-1.0260568E-2,1.0260719E-2],"split_indices":[0,0,0,0,0,0,0,0,0,0,0,0,0,0,0,0,0,0,0,0,0,0,0,0,0],"split_type":[0,0,0,0,0,0,0,0,0,0,0,0,0,0,0,0,0,0,0,0,0,0,0,0,0],"sum_hessian":[1.5E2,3.2E1,1.18E2,4E0,2.8E1,6.5E1,5.3E1,5E0,2.3E1,4.7E1,1.8E1,1.3E1,4E1,3E0,2E0,3E0,2E1,4.4E1,3E0,4E0,1.4E1,1.2E1,1E0,3.5E1,5E0],"tree_param":{"num_deleted":"0","num_feature":"2","num_nodes":"25","size_leaf_vector":"1"}},{"base_weights":[2.2352964E-2,1.2465022E-5,2.9972913E-2,8.072165E-3,1.4754101E-2,-1.2065566E-3,2.9656665E-2,5.6301244E-3,-7.545013E-4],"categories":[],"categories_nodes":[],"categories_segments":[],"categories_sizes":[],"default_left":[0,0,0,0,0,0,0,0,0],"id":42,"left_children":[1,-1,3,-1,5,-1,7,-1,-1],"loss_changes":[2.3878649E-2,0E0,7.9904236E-2,0E0,3.3131726E-2,0E0,5.295962E-2,0E0,0E0],"parents":[2147483647,0,0,2,2,4,4,6,6],"right_children":[2,-1,4,-1,6,-1,8,-1,-1],"split_conditions":[2E0,1.2465022E-5,3E0,8.072165E-3,4E0,-1.2065566E-3,5E0,5.6301244E-3,-7.545013E-4],"split_indices":[1,0,1,0,1,0,1,0,0],"split_type":[0,0,0,0,0,0,0,0,0],"sum_hessian":[1.4E2,3.6E1,1.04E2,2.3E1,8.1E1,2.9E1,5.2E1,3E1,2.2E1],"tree_param":{"num_deleted":"0","num_feature":"2","num_nodes":"9","size_leaf_vector":"1"}},{"base_weights":[-2.1501124E-2,-1.7929684E-2,-7.6644784E-3,8.866146E-2,-4.242424E-2,1.5041323E-1,3.7914563E-2,-3.3501655E-2,-1.8667756E-2,1.8854057E-3,2.1430742E-2,-1.0108718E-2,1.60833E-2,1.1775752E-2,-3.3782253E-3],"categories":[],"categories_nodes":[],"categories_segments":[],"categories_sizes":[],"default_left":[0,0,0,0,0,0,0,0,0,0,0,0,0,0,0],"id":43,"left_children":[1,-1,3,5,7,9,11,-1,13,-1,-1,-1,-1,-1,-1],"loss_changes":[2.9774654E-1,0E0,4.2899123E-1,1.0084331E-1,6.471366E-1,1.22047454E-1,3.579757E-1,0E0,1.8543404E-1,0E0,0E0,0E0,0E0,0E0,0E0],"parents":[2147483647,0,0,2,2,3,3,4,4,5,5,6,6,8,8],"right_children":[2,-1,4,6,8,10,12,-1,14,-1,-1,-1,-1,-1,-1],"split_conditions":[4E0,-1.7929684E-2,1.6E1,9E0,2E1,6E0,1.4E1,-3.3501655E-2,2.3E1,1.8854057E-3,2.1430742E-2,-1.0108718E-2,1.60833E-2,1.1775752E-2,-3.3782253E-3],"split_indices":[0,0,0,0,0,0,0,0,0,0,0,0,0,0,0],"split_type":[0,0,0,0,0,0,0,0,0,0,0,0,0,0,0],"sum_hessian":[1.36E2,1E1,1.26E2,3.3E1,9.3E1,1.4E1,1.9E1,6E0,8.7E1,5E0,9E0,9E0,1E1,8E0,7.9E1],"tree_param":{"num_deleted":"0","num_feature":"2","num_nodes":"15","size_leaf_vector":"1"}},{"base_weights":[2.5577346E-2,8.310546E-2,-1.1814663E-3,4.9534153E-2,2.0236588E-1,-1.300389E-1,2.9882753E-2,8.859927E-2,-3.0466918E-2,4.2568684E-2,4.58445E-3,-1.651187E-2,-2.4191475E-2,8.976365E-2,-1.3499165E-2,3.7626156E-3,1.6237138E-2,-1.05537465E-2,2.5606886E-2,6.609019E-5,2.6048884E-2,-5.849531E-3,1.6783534E-2],"categories":[],"categories_nodes":[],"categories_segments":[],"categories_sizes":[],"default_left":[0,0,0,0,0,0,0,0,0,0,0,0,0,0,0,0,0,0,0,0,0,0,0],"id":44,"left_children":[1,3,5,7,9,11,13,15,-1,-1,-1,17,-1,19,21,-1,-1,-1,-1,-1,-1,-1,-1],"loss_changes":[2.27927E-1,1.7815122E-1,4.1217718E-1,5.527993E-1,3.300296E-1,2.500242E-1,2.168248E-1,1.2550437E-1,0E0,0E0,0E0,2.939581E-1,0E0,5.3225076E-1,4.0962592E-1,0E0,0E0,0E0,0E0,0E0,0E0,0E0,0E0],"parents":[2147483647,0,0,1,1,2,2,3,3,4,4,5,5,6,6,7,7,11,11,13,13,14,14],"right_children":[2,4,6,8,10,12,14,16,-1,-1,-1,18,-1,20,22,-1,-1,-1,-1,-1,-1,-1,-1],"split_conditions":[1.6E1,1.4E1,2.6E1,1.2E1,1.5E1,2.3E1,3.6E1,8E0,-3.0466918E-2,4.2568684E-2,4.58445E-3,2.2E1,-2.4191475E-2,3.3E1,4.7E1,3.7626156E-3,1.6237138E-2,-1.05537465E-2,2.5606886E-2,6.609019E-5,2.6048884E-2,-5.849531E-3,1.6783534E-2],"split_indices":[0,0,0,0,0,0,0,0,0,0,0,0,0,0,0,0,0,0,0,0,0,0,0],"split_type":[0,0,0,0,0,0,0,0,0,0,0,0,0,0,0,0,0,0,0,0,0,0,0],"sum_hessian":[1.47E2,4.6E1,1.01E2,3.7E1,9E0,1.9E1,8.2E1,3.4E1,3E0,3E0,6E0,1E1,9E0,3.4E1,4.8E1,2.1E1,1.3E1,8E0,2E0,2.3E1,1.1E1,3.9E1,9E0],"tree_param":{"num_deleted":"0","num_feature":"2","num_nodes":"23","size_leaf_vector":"1"}},{"base_weights":[-3.3235244E-2,-6.941444E-3,-2.2344487E-2,3.5626616E-3,-3.7854627E-2,-8.110013E-3,-1.5621319E-3],"categories":[],"categories_nodes":[],"categories_segments":[],"categories_sizes":[],"default_left":[0,0,0,0,0,0,0],"id":45,"left_children":[1,-1,3,-1,5,-1,-1],"loss_changes":[5.715777E-2,0E0,1.0564889E-1,0E0,8.7190226E-2,0E0,0E0],"parents":[2147483647,0,0,2,2,4,4],"right_children":[2,-1,4,-1,6,-1,-1],"split_conditions":[2E0,-6.941444E-3,3E0,3.5626616E-3,4E0,-8.110013E-3,-1.5621319E-3],"split_indices":[1,0,1,0,1,0,0],"split_type":[0,0,0,0,0,0,0],"sum_hessian":[1.48E2,3.3E1,1.15E2,2.4E1,9.1E1,3E1,6.1E1],"tree_param":{"num_deleted":"0","num_feature":"2","num_nodes":"7","size_leaf_vector":"1"}},{"base_weights":[1.9121965E-2,7.874289E-3,2.6033029E-2,2.2150173E-3,-9.998886E-4,2.3760253E-3,3.129315E-3],"categories":[],"categories_nodes":[],"categories_segments":[],"categories_sizes":[],"default_left":[0,0,0,0,0,0,0],"id":46,"left_children":[1,3,5,-1,-1,-1,-1],"loss_changes":[1.1144087E-2,1.47653315E-2,3.3242255E-4,0E0,0E0,0E0,0E0],"parents":[2147483647,0,0,1,1,2,2],"right_children":[2,4,6,-1,-1,-1,-1],"split_conditions":[3E0,2E0,5E0,2.2150173E-3,-9.998886E-4,2.3760253E-3,3.129315E-3],"split_indices":[1,1,1,0,0,0,0],"split_type":[0,0,0,0,0,0,0],"sum_hessian":[1.45E2,5.6E1,8.9E1,3.1E1,2.5E1,6.6E1,2.3E1],"tree_param":{"num_deleted":"0","num_feature":"2","num_nodes":"7","size_leaf_vector":"1"}},{"base_weights":[1.9806819E-2,2.4616411E-2,-7.402543E-4,1.9222252E-2,3.7567858E-3,3.1437592E-3,1.1384372E-2,1.6249141E-4,2.011372E-3],"categories":[],"categories_nodes":[],"categories_segments":[],"categories_sizes":[],"default_left":[0,0,0,0,0,0,0,0,0],"id":47,"left_children":[1,3,-1,5,-1,-1,7,-1,-1],"loss_changes":[1.9550383E-2,8.08049E-3,0E0,8.35466E-3,0E0,0E0,4.823358E-3,0E0,0E0],"parents":[2147483647,0,0,1,1,3,3,6,6],"right_children":[2,4,-1,6,-1,-1,8,-1,-1],"split_conditions":[5E0,4E0,-7.402543E-4,2E0,3.7567858E-3,3.1437592E-3,3E0,1.6249141E-4,2.011372E-3],"split_indices":[1,1,0,1,0,0,1,0,0],"split_type":[0,0,0,0,0,0,0,0,0],"sum_hessian":[1.47E2,1.25E2,2.2E1,9E1,3.5E1,3.4E1,5.6E1,2.7E1,2.9E1],"tree_param":{"num_deleted":"0","num_feature":"2","num_nodes":"9","size_leaf_vector":"1"}},{"base_weights":[7.519071E-3,-3.9580944E-3,2.1207402E-2,3.8030022E-3,1.6243663E-3],"categories":[],"categories_nodes":[],"categories_segments":[],"categories_sizes":[],"default_left":[0,0,0,0,0],"id":48,"left_children":[1,-1,3,-1,-1],"loss_changes":[9.432389E-2,0E0,8.818105E-3,0E0,0E0],"parents":[2147483647,0,0,2,2],"right_children":[2,-1,4,-1,-1],"split_conditions":[2E0,-3.9580944E-3,3E0,3.8030022E-3,1.6243663E-3],"split_indices":[1,0,1,0,0],"split_type":[0,0,0,0,0],"sum_hessian":[1.44E2,3.2E1,1.12E2,2.4E1,8.8E1],"tree_param":{"num_deleted":"0","num_feature":"2","num_nodes":"5","size_leaf_vector":"1"}},{"base_weights":[-1.5133587E-2,-4.286874E-2,2.3728574E-3,-1.5362231E-3,-7.5262063E-3,2.3312986E-2,-5.443886E-3,2.6319902E-3,1.9983633E-3],"categories":[],"categories_nodes":[],"categories_segments":[],"categories_sizes":[],"default_left":[0,0,0,0,0,0,0,0,0],"id":49,"left_children":[1,3,5,-1,-1,7,-1,-1,-1],"loss_changes":[6.904896E-2,4.785031E-2,1.0595786E-1,0E0,0E0,1.2475252E-4,0E0,0E0,0E0],"parents":[2147483647,0,0,1,1,2,2,5,5],"right_children":[2,4,6,-1,-1,8,-1,-1,-1],"split_conditions":[3E0,2E0,5E0,-1.5362231E-3,-7.5262063E-3,4E0,-5.443886E-3,2.6319902E-3,1.9983633E-3],"split_indices":[1,1,1,0,0,1,0,0,0],"split_type":[0,0,0,0,0,0,0,0,0],"sum_hessian":[1.41E2,5.4E1,8.7E1,3E1,2.4E1,6.4E1,2.3E1,3E1,3.4E1],"tree_param":{"num_deleted":"0","num_feature":"2","num_nodes":"9","size_leaf_vector":"1"}},{"base_weights":[1.8807422E-2,6.63648E-3,3.8032022E-3,1.4440845E-2,-8.682823E-4,1.052874E-3,1.8832352E-3],"categories":[],"categories_nodes":[],"categories_segments":[],"categories_sizes":[],"default_left":[0,0,0,0,0,0,0],"id":50,"left_children":[1,3,-1,5,-1,-1,-1],"loss_changes":[3.3674914E-2,1.0885557E-2,0E0,8.3252136E-4,0E0,0E0,0E0],"parents":[2147483647,0,0,1,1,3,3],"right_children":[2,4,-1,6,-1,-1,-1],"split_conditions":[4E0,3E0,3.8032022E-3,2E0,-8.682823E-4,1.052874E-3,1.8832352E-3],"split_indices":[1,1,0,1,0,0,0],"split_type":[0,0,0,0,0,0,0],"sum_hessian":[1.44E2,8.9E1,5.5E1,5.9E1,3E1,3.3E1,2.6E1],"tree_param":{"num_deleted":"0","num_feature":"2","num_nodes":"7","size_leaf_vector":"1"}},{"base_weights":[1.3264622E-2,7.94828E-2,-3.5405057E-3,-3.1409353E-2,3.417211E-2,-1.833573E-1,9.335163E-3,7.0439875E-3,-6.550853E-2,-6.5178E-2,-2.852421E-2,2.2051321E-2,-5.2803516E-4,-1.3104374E-2,-1.7848987E-3,-2.8719286E-2,6.2123924E-3,-1.3935462E-3,1.1896795E-2],"categories":[],"categories_nodes":[],"categories_segments":[],"categories_sizes":[],"default_left":[0,0,0,0,0,0,0,0,0,0,0,0,0,0,0,0,0,0,0],"id":51,"left_children":[1,3,5,7,-1,9,11,-1,13,15,-1,-1,17,-1,-1,-1,-1,-1,-1],"loss_changes":[1.6497652E-1,8.831384E-1,2.772278E-1,8.101986E-2,0E0,7.7733874E-2,2.3340021E-1,0E0,5.075843E-2,1.5915613E-1,0E0,0E0,1.746883E-1,0E0,0E0,0E0,0E0,0E0,0E0],"parents":[2147483647,0,0,1,1,2,2,3,3,5,5,6,6,8,8,9,9,12,12],"right_children":[2,4,6,8,-1,10,12,-1,14,16,-1,-1,18,-1,-1,-1,-1,-1,-1],"split_conditions":[1E1,8E0,1.4E1,2E0,3.417211E-2,1.2E1,1.5E1,7.0439875E-3,4E0,1.1E1,-2.852421E-2,2.2051321E-2,4.7E1,-1.3104374E-2,-1.7848987E-3,-2.8719286E-2,6.2123924E-3,-1.3935462E-3,1.1896795E-2],"split_indices":[0,0,0,0,0,0,0,0,0,0,0,0,0,0,0,0,0,0,0],"split_type":[0,0,0,0,0,0,0,0,0,0,0,0,0,0,0,0,0,0,0],"sum_hessian":[1.47E2,2.9E1,1.18E2,2.1E1,8E0,7E0,1.11E2,5E0,1.6E1,4E0,3E0,4E0,1.07E2,6E0,1E1,1E0,3E0,9.7E1,1E1],"tree_param":{"num_deleted":"0","num_feature":"2","num_nodes":"19","size_leaf_vector":"1"}},{"base_weights":[2.4911559E-3,-6.798412E-3,2.3420822E-2,1.4316547E-2,5.58273E-3,1.8666752E-3,1.2393551E-2,1.0409271E-3,1.3740262E-3],"categories":[],"categories_nodes":[],"categories_segments":[],"categories_sizes":[],"default_left":[0,0,0,0,0,0,0,0,0],"id":52,"left_children":[1,-1,3,5,-1,-1,7,-1,-1],"loss_changes":[2.1252067E-1,0E0,3.1949915E-2,5.048085E-4,0E0,0E0,2.799742E-5,0E0,0E0],"parents":[2147483647,0,0,2,2,3,3,6,6],"right_children":[2,-1,4,6,-1,-1,8,-1,-1],"split_conditions":[2E0,-6.798412E-3,5E0,3E0,5.58273E-3,1.8666752E-3,4E0,1.0409271E-3,1.3740262E-3],"split_indices":[1,0,1,1,0,0,1,0,0],"split_type":[0,0,0,0,0,0,0,0,0],"sum_hessian":[1.42E2,3.2E1,1.1E2,8.7E1,2.3E1,2.4E1,6.3E1,2.9E1,3.4E1],"tree_param":{"num_deleted":"0","num_feature":"2","num_nodes":"9","size_leaf_vector":"1"}},{"base_weights":[-1.379367E-2,-2.2940971E-2,1.0803837E-1,6.9251945E-3,-4.7293797E-2,2.0714763E-1,-5.2322257E-2,-1.026295E-2,2.7590716E-2,-3.1330615E-2,-1.3385392E-2,1.2981959E-2,3.3555795E-2,-1.3394648E-2,4.674272E-3,9.974077E-4,-1.3279334E-2,3.3671174E-3,-7.0018037E-3],"categories":[],"categories_nodes":[],"categories_segments":[],"categories_sizes":[],"default_left":[0,0,0,0,0,0,0,0,0,0,0,0,0,0,0,0,0,0,0],"id":53,"left_children":[1,3,5,7,9,11,13,15,-1,-1,17,-1,-1,-1,-1,-1,-1,-1,-1],"loss_changes":[1.7521587E-1,1.0578971E-1,1.8566388E-1,3.0796948E-1,7.1741074E-1,2.5946021E-2,4.669153E-2,1.575425E-1,0E0,0E0,1.9423312E-1,0E0,0E0,0E0,0E0,0E0,0E0,0E0,0E0],"parents":[2147483647,0,0,1,1,2,2,3,3,4,4,5,5,6,6,7,7,10,10],"right_children":[2,4,6,8,10,12,14,16,-1,-1,18,-1,-1,-1,-1,-1,-1,-1,-1],"split_conditions":[4.7E1,2.3E1,4.9E1,2.2E1,2.6E1,4.8E1,5E1,1.8E1,2.7590716E-2,-3.1330615E-2,3.9E1,1.2981959E-2,3.3555795E-2,-1.3394648E-2,4.674272E-3,9.974077E-4,-1.3279334E-2,3.3671174E-3,-7.0018037E-3],"split_indices":[0,0,0,0,0,0,0,0,0,0,0,0,0,0,0,0,0,0,0],"split_type":[0,0,0,0,0,0,0,0,0,0,0,0,0,0,0,0,0,0,0],"sum_hessian":[1.54E2,1.44E2,1E1,6.5E1,7.9E1,6E0,4E0,6.2E1,3E0,8E0,7.1E1,5E0,1E0,2E0,2E0,5.4E1,8E0,3.9E1,3.2E1],"tree_param":{"num_deleted":"0","num_feature":"2","num_nodes":"19","size_leaf_vector":"1"}},{"base_weights":[-8.828315E-3,-4.610499E-2,4.6920426E-2,2.6805198E-2,-7.711257E-2,2.3918416E-1,-2.1230136E-3,-2.3172073E-2,1.0160596E-1,-1.4946401E-1,-2.0706976E-2,3.258576E-3,3.8209934E-2,-3.182373E-2,1.0067246E-1,3.1581596E-3,-2.892164E-2,1.4945169E-2,1.4300764E-3,-9.445148E-3,-2.9314965E-2,2.6016308E-3,-1.6376752E-2,1.3352094E-3,-7.3149577E-3,1.930811E-2,-4.883412E-3],"categories":[],"categories_nodes":[],"categories_segments":[],"categories_sizes":[],"default_left":[0,0,0,0,0,0,0,0,0,0,0,0,0,0,0,0,0,0,0,0,0,0,0,0,0,0,0],"id":54,"left_children":[1,3,5,7,9,11,13,15,17,19,21,-1,-1,23,25,-1,-1,-1,-1,-1,-1,-1,-1,-1,-1,-1,-1],"loss_changes":[3.0556992E-1,2.0101465E-1,5.56835E-1,1.0328955E-1,2.4992871E-1,3.4186155E-1,1.4975253E-1,2.5677127E-1,4.38117E-2,1.8573338E-1,2.4489392E-1,0E0,0E0,7.192001E-2,1.6140163E-1,0E0,0E0,0E0,0E0,0E0,0E0,0E0,0E0,0E0,0E0,0E0,0E0],"parents":[2147483647,0,0,1,1,2,2,3,3,4,4,5,5,6,6,7,7,8,8,9,9,10,10,13,13,14,14],"right_children":[2,4,6,8,10,12,14,16,18,20,22,-1,-1,24,26,-1,-1,-1,-1,-1,-1,-1,-1,-1,-1,-1,-1],"split_conditions":[3.3E1,9E0,3.6E1,6E0,2E1,3.4E1,4.7E1,5E0,8E0,1.6E1,2.9E1,3.258576E-3,3.8209934E-2,4.1E1,4.9E1,3.1581596E-3,-2.892164E-2,1.4945169E-2,1.4300764E-3,-9.445148E-3,-2.9314965E-2,2.6016308E-3,-1.6376752E-2,1.3352094E-3,-7.3149577E-3,1.930811E-2,-4.883412E-3],"split_indices":[0,0,0,0,0,0,0,0,0,0,0,0,0,0,0,0,0,0,0,0,0,0,0,0,0,0,0],"split_type":[0,0,0,0,0,0,0,0,0,0,0,0,0,0,0,0,0,0,0,0,0,0,0,0,0,0,0],"sum_hessian":[1.45E2,8.7E1,5.8E1,2.6E1,6.1E1,1.1E1,4.7E1,1.6E1,1E1,2.6E1,3.5E1,5E0,6E0,3.7E1,1E1,1.4E1,2E0,6E0,4E0,2E1,6E0,2.7E1,8E0,1.8E1,1.9E1,6E0,4E0],"tree_param":{"num_deleted":"0","num_feature":"2","num_nodes":"27","size_leaf_vector":"1"}},{"base_weights":[-2.486417E-3,1.2315311E-1,-1.4841171E-2,2.5069714E-3,5.244713E-2,-4.076867E-2,-5.661342E-3,1.799187E-2,-1.2457384E-1,-5.0613098E-2,2.797812E-2,-1.9113459E-3,-1.9889077E-2,3.3491172E-3,-8.509209E-3,3.427578E-2,5.973171E-5],"categories":[],"categories_nodes":[],"categories_segments":[],"categories_sizes":[],"default_left":[0,0,0,0,0,0,0,0,0,0,0,0,0,0,0,0,0],"id":55,"left_children":[1,3,5,7,-1,-1,9,-1,11,13,15,-1,-1,-1,-1,-1,-1],"loss_changes":[2.2535108E-1,6.2811255E-1,4.737175E-1,2.7041507E-1,0E0,0E0,1.9799595E-1,0E0,5.1060952E-2,1.6524032E-1,6.462144E-1,0E0,0E0,0E0,0E0,0E0,0E0],"parents":[2147483647,0,0,1,1,2,2,3,3,6,6,8,8,9,9,10,10],"right_children":[2,4,6,8,-1,-1,10,-1,12,14,16,-1,-1,-1,-1,-1,-1],"split_conditions":[5E0,4E0,7E0,2E0,5.244713E-2,-4.076867E-2,2.6E1,1.799187E-2,3E0,1E1,2.8E1,-1.9113459E-3,-1.9889077E-2,3.3491172E-3,-8.509209E-3,3.427578E-2,5.973171E-5],"split_indices":[0,0,0,0,0,0,0,0,0,0,0,0,0,0,0,0,0],"split_type":[0,0,0,0,0,0,0,0,0,0,0,0,0,0,0,0,0],"sum_hessian":[1.43E2,1.2E1,1.31E2,1E1,2E0,2E0,1.29E2,4E0,6E0,5.5E1,7.4E1,3E0,3E0,1.6E1,3.9E1,5E0,6.9E1],"tree_param":{"num_deleted":"0","num_feature":"2","num_nodes":"17","size_leaf_vector":"1"}},{"base_weights":[-1.5402007E-2,-3.1341612E-2,2.0610474E-1,1.0758021E-2,-6.199832E-2,3.809872E-2,-4.4975173E-2,-4.2063203E-2,1.083423E-1,-1.1190738E-1,-4.7772504E-2,-1.2180093E-2,4.684231E-3,-1.7419908E-3,-2.5333706E-2,3.5835635E-2,6.316417E-3,-5.6772917E-3,-1.4482421E-2,1.1141E-2,-6.3150856E-3],"categories":[],"categories_nodes":[],"categories_segments":[],"categories_sizes":[],"default_left":[0,0,0,0,0,0,0,0,0,0,0,0,0,0,0,0,0,0,0,0,0],"id":56,"left_children":[1,3,5,7,9,-1,11,13,15,17,19,-1,-1,-1,-1,-1,-1,-1,-1,-1,-1],"loss_changes":[5.2547693E-1,1.7877479E-1,4.5622975E-1,3.0867395E-1,5.145368E-2,0E0,4.0975176E-2,1.9863975E-1,2.1456327E-1,2.2630379E-2,1.6370532E-1,0E0,0E0,0E0,0E0,0E0,0E0,0E0,0E0,0E0,0E0],"parents":[2147483647,0,0,1,1,2,2,3,3,4,4,6,6,7,7,8,8,9,9,10,10],"right_children":[2,4,6,8,10,-1,12,14,16,18,20,-1,-1,-1,-1,-1,-1,-1,-1,-1,-1],"split_conditions":[4.7E1,2.3E1,4.9E1,1.4E1,2.8E1,3.809872E-2,5E1,1.2E1,1.5E1,2.5E1,2.9E1,-1.2180093E-2,4.684231E-3,-1.7419908E-3,-2.5333706E-2,3.5835635E-2,6.316417E-3,-5.6772917E-3,-1.4482421E-2,1.1141E-2,-6.3150856E-3],"split_indices":[0,0,0,0,0,0,0,0,0,0,0,0,0,0,0,0,0,0,0,0,0],"split_type":[0,0,0,0,0,0,0,0,0,0,0,0,0,0,0,0,0,0,0,0,0],"sum_hessian":[1.46E2,1.37E2,9E0,5.8E1,7.9E1,5E0,4E0,3.8E1,2E1,1.6E1,6.3E1,2E0,2E0,3.5E1,3E0,2E0,1.8E1,7E0,9E0,5E0,5.8E1],"tree_param":{"num_deleted":"0","num_feature":"2","num_nodes":"21","size_leaf_vector":"1"}},{"base_weights":[-3.5242934E-2,-8.9666374E-2,-1.3237068E-2,1.7915376E-2,-2.7733576E-1,2.441497E-2,-6.8503484E-2,-6.171812E-2,1.2260042E-1,-4.906744E-2,-1.2159901E-1,-9.494283E-4,1.9574334E-1,-8.9177124E-2,1.0231688E-1,-1.8764669E-3,-2.4159485E-2,1.4786913E-2,7.268686E-3,7.454455E-3,-2.1630976E-2,2.9796427E-3,-8.49248E-3,3.773648E-2,7.2308728E-3,-1.0424446E-2,-5.590136E-3,2.9004682E-2,-1.7127305E-3],"categories":[],"categories_nodes":[],"categories_segments":[],"categories_sizes":[],"default_left":[0,0,0,0,0,0,0,0,0,0,0,0,0,0,0,0,0,0,0,0,0,0,0,0,0,0,0,0,0],"id":57,"left_children":[1,3,5,7,9,11,13,15,17,-1,19,21,23,25,27,-1,-1,-1,-1,-1,-1,-1,-1,-1,-1,-1,-1,-1,-1],"loss_changes":[1.7007488E-1,8.3275044E-1,2.1600449E-1,2.3265043E-1,4.3870437E-1,2.696156E-1,1.5744644E-1,1.1908777E-1,4.386887E-3,0E0,2.0189373E-1,1.4453468E-1,1.5206021E-1,1.322493E-2,1.1708396E-1,0E0,0E0,0E0,0E0,0E0,0E0,0E0,0E0,0E0,0E0,0E0,0E0,0E0,0E0],"parents":[2147483647,0,0,1,1,2,2,3,3,4,4,5,5,6,6,7,7,8,8,10,10,11,11,12,12,13,13,14,14],"right_children":[2,4,6,8,10,12,14,16,18,-1,20,22,24,26,28,-1,-1,-1,-1,-1,-1,-1,-1,-1,-1,-1,-1,-1,-1],"split_conditions":[1.5E1,9E0,3.6E1,6E0,1.1E1,3.4E1,4.8E1,5E0,8E0,-4.906744E-2,1.2E1,2.9E1,3.5E1,4.4E1,4.9E1,-1.8764669E-3,-2.4159485E-2,1.4786913E-2,7.268686E-3,7.454455E-3,-2.1630976E-2,2.9796427E-3,-8.49248E-3,3.773648E-2,7.2308728E-3,-1.0424446E-2,-5.590136E-3,2.9004682E-2,-1.7127305E-3],"split_indices":[0,0,0,0,0,0,0,0,0,0,0,0,0,0,0,0,0,0,0,0,0,0,0,0,0,0,0,0,0],"split_type":[0,0,0,0,0,0,0,0,0,0,0,0,0,0,0,0,0,0,0,0,0,0,0,0,0,0,0,0,0],"sum_hessian":[1.42E2,4E1,1.02E2,2.6E1,1.4E1,6.1E1,4.1E1,1.5E1,1.1E1,5E0,9E0,5.4E1,7E0,3.7E1,4E0,1.3E1,2E0,6E0,5E0,3E0,6E0,4E1,1.4E1,2E0,5E0,2.4E1,1.3E1,1E0,3E0],"tree_param":{"num_deleted":"0","num_feature":"2","num_nodes":"29","size_leaf_vector":"1"}},{"base_weights":[3.0021764E-2,2.412941E-2,2.0618463E-2,-1.812601E-2,2.644732E-2,1.9578336E-2,2.1115568E-2,-2.2548852E-2,2.6644003E-3],"categories":[],"categories_nodes":[],"categories_segments":[],"categories_sizes":[],"default_left":[0,0,0,0,0,0,0,0,0],"id":58,"left_children":[1,-1,3,-1,5,-1,7,-1,-1],"loss_changes":[2.791169E-1,0E0,1.671814E-1,0E0,1.1775177E-1,0E0,1.8596813E-1,0E0,0E0],"parents":[2147483647,0,0,2,2,4,4,6,6],"right_children":[2,-1,4,-1,6,-1,8,-1,-1],"split_conditions":[3E0,2.412941E-2,4E0,-1.812601E-2,5E0,1.9578336E-2,6E0,-2.2548852E-2,2.6644003E-3],"split_indices":[0,0,0,0,0,0,0,0,0],"split_type":[0,0,0,0,0,0,0,0,0],"sum_hessian":[1.42E2,5E0,1.37E2,3E0,1.34E2,3E0,1.31E2,2E0,1.29E2],"tree_param":{"num_deleted":"0","num_feature":"2","num_nodes":"9","size_leaf_vector":"1"}},{"base_weights":[8.773101E-3,2.3162425E-2,-4.9582902E-2,-1.3848297E-2,5.5105716E-2,-7.385991E-2,5.578895E-2,1.0069131E-2,-2.5503641E-2,1.0247004E-1,1.6736085E-2,-1.1421536E-2,-5.052441E-2,2.7421225E-2,-4.273816E-2,-2.2812355E-4,3.1379372E-2,3.1343405E-3,2.4914367E-2,-1.43191805E-2,7.534878E-3,-2.520466E-3,-1.0625089E-2,-1.1431533E-2,4.308506E-3],"categories":[],"categories_nodes":[],"categories_segments":[],"categories_sizes":[],"default_left":[0,0,0,0,0,0,0,0,0,0,0,0,0,0,0,0,0,0,0,0,0,0,0,0,0],"id":59,"left_children":[1,3,5,7,9,11,13,15,-1,17,19,-1,21,-1,23,-1,-1,-1,-1,-1,-1,-1,-1,-1,-1],"loss_changes":[1.2290546E-1,1.3908568E-1,7.8305855E-2,3.1984094E-1,1.127782E-1,1.6830489E-2,1.4084303E-1,1.9202244E-1,0E0,2.8429827E-1,3.482463E-1,0E0,2.130865E-2,0E0,3.5640195E-2,0E0,0E0,0E0,0E0,0E0,0E0,0E0,0E0,0E0,0E0],"parents":[2147483647,0,0,1,1,2,2,3,3,4,4,5,5,6,6,7,7,9,9,10,10,12,12,14,14],"right_children":[2,4,6,8,10,12,14,16,-1,18,20,-1,22,-1,24,-1,-1,-1,-1,-1,-1,-1,-1,-1,-1],"split_conditions":[4.1E1,2E1,4.8E1,1.8E1,2.9E1,4.4E1,4.9E1,1.7E1,-2.5503641E-2,2.7E1,3.3E1,-1.1421536E-2,4.7E1,2.7421225E-2,5E1,-2.2812355E-4,3.1379372E-2,3.1343405E-3,2.4914367E-2,-1.43191805E-2,7.534878E-3,-2.520466E-3,-1.0625089E-2,-1.1431533E-2,4.308506E-3],"split_indices":[0,0,0,0,0,0,0,0,0,0,0,0,0,0,0,0,0,0,0,0,0,0,0,0,0],"split_type":[0,0,0,0,0,0,0,0,0,0,0,0,0,0,0,0,0,0,0,0,0,0,0,0,0],"sum_hessian":[1.44E2,1.16E2,2.8E1,5.4E1,6.2E1,2.3E1,5E0,5E1,4E0,2.7E1,3.5E1,7E0,1.6E1,1E0,4E0,4.9E1,1E0,1.9E1,8E0,9E0,2.6E1,1.2E1,4E0,2E0,2E0],"tree_param":{"num_deleted":"0","num_feature":"2","num_nodes":"25","size_leaf_vector":"1"}}]},"name":"gbtree"},"learner_model_param":{"base_score":"5E-1","boost_from_average":"1","num_class":"0","num_feature":"2","num_target":"1"},"objective":{"name":"reg:squarederror","reg_loss_param":{"scale_pos_weight":"1"}}},"version":[2,0,3]}